{
  "labels": {
    "labels": [
      "3",
      "5",
      "1",
      "6",
      "2"
    ],
    "rows": 5
  },
  "mlp": {
    "layers": [
      {
        "activation": 1,
        "biases": [
          -0.15376164169364015,
          -0.003209005176392692,
          -0.1040625105419555,
          -0.059561204597843906,
          0.05930440006945205
        ],
        "cols": 5,
        "rows": 210,
        "weights": [
          [
            -0.04268225738562422,
            -0.16630337843692022,
            0.39660284300584464,
            0.13945140641672732,
            -0.08645455451682633
          ],
          [
            -0.1018039924496777,
            -0.1812281633916248,
            0.15488741540782958,
            -0.15144972265301357,
            0.05113236668045829
          ],
          [
            0.10569672155947725,
            0.013045697084155415,
            0.297932811001154,
            -0.14550964591276092,
            0.025605686832231835
          ],
          [
            0.08775378957304582,
            0.21009443540648204,
            0.5038820231497925,
            -0.05233944830889104,
            -0.12045378635341131
          ],
          [
            -0.09879676925779801,
            0.1207451259414545,
            0.18832112858964983,
            -0.06379775345277329,
            0.14347746921367519
          ],
          [
            -0.1493280375712469,
            0.04381859475946084,
            0.006668227066054384,
            -0.08318785513098939,
            -0.01130671046360922
          ],
          [
            -0.13408078657299755,
            0.06198750687723146,
            -0.06708712887634445,
            -0.10938684100679957,
            0.055300229810992266
          ],
          [
            -0.5183353525344396,
            0.23318493311691008,
            -0.1295189353557309,
            -0.07905046294584585,
            -0.1382818091676065
          ],
          [
            -0.3181396984051743,
            0.38954330534330395,
            -0.4362608604296465,
            0.020437986818154792,
            0.06673644738722284
          ],
          [
            -0.6052227839123605,
            0.5926150668664367,
            -0.47719277309232455,
            -0.0580066279953698,
            0.09703324235510809
          ],
          [
            0.04041044864943833,
            0.5124393149542642,
            -0.36082960146497656,
            -0.06481542872284932,
            -0.12633144395773035
          ],
          [
            0.3982352612920785,
            0.5117393824152189,
            -0.2852000900331915,
            0.3053172967331919,
            0.049795287139819365
          ],
          [
            0.2426413729310962,
            0.11643572972910556,
            -0.14183087270522296,
            0.17334629629228498,
            -0.10196761873027614
          ],
          [
            0.10988274565932017,
            0.08259697411962107,
            -0.06397086284866967,
            -0.07199227033342137,
            -0.08871385232740736
          ],
          [
            0.1896653480829015,
            -0.1604241475716264,
            -0.03591623673963814,
            -0.04795091018466094,
            0.08186669712574332
          ],
          [
            0.24206879371533707,
            -0.1305456084432951,
            -0.2599033110490849,
            -0.0119248879101111,
            0.1763819780640746
          ],
          [
            0.33701724192728527,
            -0.4097831944331607,
            -0.45975420496540176,
            -0.14805772259174488,
            0.10155853950440938
          ],
          [
            0.23331511598177682,
            -0.39598511575127426,
            -0.20664341524802174,
            -0.20014068280613306,
            0.14637209634195075
          ],
          [
            0.024408809185869344,
            -0.21282987148595078,
            -0.27351393678387487,
            -0.14722712304049101,
            0.026667915828457216
          ],
          [
            0.22426333812112867,
            -0.08784405611399312,
            -0.16037797575756305,
            0.06326478146859946,
            0.13760045918979058
          ],
          [
            -0.1384854852035495,
            -0.04320805410903287,
            0.012871309858901166,
            -0.049524150749094144,
            0.12794254876590577
          ],
          [
            -0.11504919734634765,
            -0.007879032084341195,
            -0.09377138306436443,
            -0.09109243071255915,
            0.041742210883365875
          ],
          [
            -0.05135703067866785,
            -0.0950908223681638,
            0.14433727847561215,
            0.1168654838585592,
            0.07468289611882105
          ],
          [
            0.13507051664959804,
            -0.03941183671766237,
            -0.1079439157005536,
            0.07731909181384107,
            0.07754238692355654
          ],
          [
            0.1243492526991843,
            -0.0719326912696534,
            -0.15730909581758476,
            -0.06372144027828038,
            -0.11553387146599112
          ],
          [
            0.14400133950152644,
            0.02356467797874382,
            -0.052579762080099436,
            0.09810780915181992,
            0.09059700590042918
          ],
          [
            -0.111672627102791,
            -0.2343233120650585,
            -0.19689283523631868,
            0.09093647646020855,
            -0.10524791266441691
          ],
          [
            -0.31225673206863624,
            -0.42348139704635623,
            -0.33288763007142835,
            0.366508441992777,
            -0.014406495889311257
          ],
          [
            -0.49313061272779657,
            -0.2469503668064806,
            0.08830984516129405,
            0.384703166922853,
            0.05106996828220849
          ],
          [
            -0.11940754095858748,
            -0.052106113961457194,
            0.36926923808724765,
            0.23530249189580504,
            0.07926501468633906
          ],
          [
            0.14331839244330435,
            -0.07530536470446532,
            0.11045573391058687,
            -0.08977437901969015,
            0.113319794796021
          ],
          [
            -0.062993028063799,
            0.09482511749643636,
            0.3587526171994813,
            0.07392939055860151,
            0.13394149171164546
          ],
          [
            0.062289290034731055,
            -0.025763949057716156,
            0.26457334526004306,
            0.002308786686092194,
            -0.14568652526460327
          ],
          [
            -0.10100797898695699,
            0.2254913245549733,
            0.46298015324027486,
            -0.1078275194548892,
            -0.03651970205973961
          ],
          [
            -0.1869261947433574,
            0.20008274542139884,
            0.15913687830382667,
            -0.05654386535444537,
            0.035009492293066435
          ],
          [
            -0.0018084487245845105,
            -0.0024048405313285798,
            -0.06853083830764795,
            0.007464442129523627,
            -0.002106689135616526
          ],
          [
            -0.24528697202111172,
            -0.03553823115226902,
            -0.12535178403005248,
            0.00027527548015880883,
            -0.01172762327046091
          ],
          [
            -0.16446795807150044,
            0.19490570113519073,
            -0.14165751788083458,
            -0.10547338503121978,
            0.094977445475455
          ],
          [
            -0.34552005013555054,
            0.08560567177703891,
            -0.2310713587969228,
            -0.037153208517847126,
            0.034920019318704934
          ],
          [
            -0.25878830419344123,
            0.4137011947635173,
            -0.2190924127428546,
            -0.06260522341173015,
            -0.04572176953175723
          ],
          [
            -0.21064132909681044,
            0.3253278761710234,
            -0.03821941883240765,
            0.020694610236703676,
            0.03097039759557864
          ],
          [
            0.16297818717762788,
            0.24582236255721293,
            0.02020917876546946,
            0.20562460447426764,
            -0.04677160925048777
          ],
          [
            -0.048834707899844954,
            0.15441735646434582,
            -0.09280842535374273,
            -0.04346829242267442,
            0.08342133992845732
          ],
          [
            0.14708306878578237,
            0.054243874078674516,
            -0.057700770274401667,
            -0.14997724291178063,
            -0.1389072417298524
          ],
          [
            0.24142102174116958,
            0.049076557085225285,
            0.03948853691201847,
            -0.17168266479779576,
            -0.13236777207429484
          ],
          [
            0.145093239321618,
            -0.08923088826804569,
            -0.019025370172494976,
            -0.2619719889896294,
            0.17196066539153707
          ],
          [
            0.25263271645085705,
            -0.1602317147944814,
            -0.29823615088842775,
            -0.24954487467747824,
            -0.14311505938209587
          ],
          [
            0.06583071741666405,
            -0.13086577005024264,
            -0.27663948698550606,
            -0.20604027695697483,
            -0.024671867013050425
          ],
          [
            0.21484678346346198,
            -0.058953285010138266,
            -0.032261884173255116,
            -0.1217904925209331,
            -0.12208801160489953
          ],
          [
            0.12086138057871824,
            -0.25105918060952576,
            0.004604542305970738,
            -0.005069329250227964,
            -0.02093814174184197
          ],
          [
            0.012025524798173119,
            -0.04168671035820377,
            -0.049493859305902464,
            -0.0761575241738253,
            -0.017200701107785002
          ],
          [
            -0.11624046135417812,
            0.1252557487346921,
            -0.11033715540970646,
            -0.15840386750062893,
            -0.07413918230031565
          ],
          [
            0.11815394382083551,
            -0.13090254058747483,
            -0.03292227670468162,
            0.006104238270151509,
            -0.014487556334562082
          ],
          [
            0.05181825455001459,
            0.01411104156608617,
            -0.14637968332768833,
            0.13149374191327093,
            -0.09167000695658538
          ],
          [
            0.19640936550633753,
            -0.12292662639737767,
            -0.03465515859470188,
            0.13169971683351392,
            -0.07998034044949864
          ],
          [
            0.0038380129632175804,
            -0.03280948444787134,
            -0.11844007152682211,
            -0.050627162451387445,
            0.0489205071516913
          ],
          [
            -0.1615474004379333,
            -0.24964949693790411,
            -0.08933029373847355,
            0.22908752725511208,
            0.13696294047704524
          ],
          [
            -0.10128878100585291,
            -0.49054550340064296,
            0.06685361339432996,
            0.14420504252071348,
            0.1372817870229129
          ],
          [
            -0.12031799527568841,
            -0.21552167592505828,
            -0.04194982949423822,
            0.053187955469094945,
            -0.009690710986695376
          ],
          [
            -0.09601672478957764,
            0.17428427134921373,
            0.1618560983930727,
            0.07034132554500436,
            -0.026916162257098124
          ],
          [
            0.09083310441495501,
            -0.06437512286380903,
            0.3622280275916311,
            -0.7391319475021938,
            -0.06273774957426834
          ],
          [
            -0.46611061898780276,
            0.6220847654879056,
            0.49610267820425225,
            -0.11315292290935276,
            0.1714046213846899
          ],
          [
            0.08716940199619859,
            -0.14320260745880595,
            0.25522989614588715,
            -0.24595910059326165,
            0.10486991025108933
          ],
          [
            -0.40491747613610607,
            -0.23131167409352746,
            0.30318770425214187,
            0.006672176065291387,
            -0.02241510908188984
          ],
          [
            -0.8381704019848532,
            -0.0794565290487507,
            0.26923401663619706,
            0.36196881531391134,
            0.09227475429746296
          ],
          [
            -0.8094738812402065,
            -0.2320446943296853,
            -0.39449008588871715,
            0.9048803574397284,
            0.07637154027547972
          ],
          [
            0.09840102654058984,
            -0.5818438480960794,
            -1.070465803975594,
            0.8562117642256799,
            0.08272108810318456
          ],
          [
            0.3831265017646867,
            -0.28218567304487613,
            -0.5787387421887918,
            0.302912247299822,
            0.17074834946605416
          ],
          [
            0.002021466148900107,
            -0.05602653979285829,
            -0.06624760145831399,
            -0.44888147080554885,
            0.10329064999425235
          ],
          [
            -0.7936003260292154,
            -0.2501557561311201,
            -0.024022965043516562,
            -0.2702414884343084,
            -0.038235326268813645
          ],
          [
            0.45186566650283755,
            -0.007557134286326544,
            0.22458843025169467,
            0.09088284488566328,
            -0.10492192701966734
          ],
          [
            0.8414834288341458,
            -0.10957594478947749,
            -0.08762528734698317,
            -0.7761334389073954,
            0.041551039218088386
          ],
          [
            0.5629843261187156,
            0.3016301020422734,
            0.10112290266045082,
            -1.2213708760243396,
            0.11275999703478172
          ],
          [
            -0.9803259391171517,
            -0.5551755761860621,
            -0.13537066194105168,
            -0.19887238518703132,
            0.08235307292685813
          ],
          [
            -1.1077244605132675,
            -0.5237217638909544,
            -0.03388590898340443,
            0.20253515448791656,
            -0.12555984446196808
          ],
          [
            0.24976792229245623,
            0.33013875461492365,
            -0.05137440185053077,
            0.5198308945936964,
            0.009000975812941082
          ],
          [
            -0.16159587990221294,
            0.20912805698341685,
            -0.06050862245679071,
            -0.13220198931858532,
            -0.015831506749043
          ],
          [
            0.3984599611393095,
            -0.07700025335836008,
            0.4143706255829418,
            0.4987745629320064,
            0.14577732712638153
          ],
          [
            -0.12068812986823048,
            -0.1005417190618282,
            0.2574165115188678,
            0.45501697359603765,
            0.14636035532757447
          ],
          [
            0.09351894090623628,
            -0.7105189427800714,
            -0.6166001927182951,
            0.30231520050034694,
            0.10324463328493295
          ],
          [
            0.31103349888994636,
            -0.6057659728312681,
            -0.19693318767392315,
            0.5877838512184748,
            -0.07397003556556751
          ],
          [
            0.45113728356896976,
            -0.18550275448968884,
            0.3593739655886138,
            0.7529665317568833,
            -0.13147704694382722
          ],
          [
            -0.5018601780092459,
            0.21073039982035827,
            -0.2962233111987675,
            0.10237000466571111,
            -0.03354494880809334
          ],
          [
            -0.1450180314263564,
            0.14502011572599174,
            -0.6232758112415379,
            -0.3762403248904838,
            0.04719139505932055
          ],
          [
            0.36937834146471504,
            0.23691726099625113,
            0.38081518578148127,
            -0.6739055373377191,
            0.05827506119485721
          ],
          [
            0.097690713746002,
            0.4756615587043363,
            -0.08270760770165385,
            0.02697573169011908,
            -0.14123280361995477
          ],
          [
            0.587561644859,
            0.18103486220874154,
            0.36001813670107935,
            -0.34528799726058973,
            -0.029332513727736136
          ],
          [
            0.4061822592307665,
            0.06555815345812721,
            0.36025333528739995,
            -0.22701654905737145,
            -0.11524186841609502
          ],
          [
            -0.525100637740392,
            -0.032708296364357264,
            0.10710942560737081,
            0.7115745640532055,
            0.1733400322422938
          ],
          [
            -0.5671982948346069,
            -0.17447647372486222,
            0.5063876858287817,
            0.41979590785838244,
            0.0876668049948569
          ],
          [
            0.06361300718759724,
            0.4519707758643071,
            0.2595769400992131,
            -0.3204287649193758,
            -0.058922608432356756
          ],
          [
            0.6220259459547707,
            0.5282996551446282,
            0.28294147035061434,
            -0.055196273367921725,
            -0.07963137877390022
          ],
          [
            0.6137850772410274,
            0.09149383813813165,
            0.25943560386461006,
            -0.023143647902346104,
            0.14067167493560828
          ],
          [
            0.22187437775867375,
            0.427735268138892,
            0.49232997084128766,
            -0.4490755513548342,
            0.235124256251616
          ],
          [
            -0.17553004439985018,
            0.23455698562425734,
            0.3937778241546775,
            0.23777043467936182,
            0.15106212912642242
          ],
          [
            -0.45758735530796685,
            -0.23042065739152837,
            -0.23695722104283864,
            0.5013692727815773,
            0.17711316504953717
          ],
          [
            0.10319642995342036,
            -0.16359059750157015,
            -0.7017259908839895,
            0.19351944156401316,
            -0.027732747530621302
          ],
          [
            0.5344284666312682,
            0.24296292398174046,
            -0.31709540592240393,
            -0.040307991605083984,
            0.15152942233620043
          ],
          [
            0.19922857981200076,
            -0.40087226982940843,
            -0.05813155684223905,
            -0.23690205252128863,
            0.13395442482244224
          ],
          [
            0.36283589659411186,
            -0.09474438937451189,
            0.21019865332027063,
            0.17201993807256893,
            0.14441726902486113
          ],
          [
            0.51620511986977,
            -0.36597028509575535,
            0.4028873459836843,
            0.027533577307138065,
            0.24487021310545304
          ],
          [
            0.3095352216968185,
            -0.04433860497697227,
            -0.08700071090357471,
            -0.8529800219338066,
            -0.03618338543946718
          ],
          [
            0.14965041936266202,
            0.2046550066947538,
            -0.41699439162712076,
            -0.7493431291113077,
            0.2533990259252445
          ],
          [
            -0.15798345460719473,
            0.14862029156833426,
            -0.15983521987632288,
            -0.30718336352067654,
            0.22899617485980478
          ],
          [
            -0.6633508287356276,
            0.2286137885990128,
            0.1722072313693811,
            0.14237552817411664,
            0.1382963647028815
          ],
          [
            -0.5945912689056838,
            -0.03406918140680897,
            -0.9131904622705938,
            0.396884512555582,
            0.22467975341693402
          ],
          [
            -0.6698221325090091,
            0.14345603127497644,
            -0.4681750680519302,
            -0.06739429095443997,
            0.11626139398942838
          ],
          [
            -0.03833168557949786,
            0.25316688691968237,
            0.35592913046151214,
            0.28211549762349464,
            -0.03155002636460088
          ],
          [
            -0.2215938426453569,
            0.38510521999361963,
            0.04335726762715676,
            0.1142228809343228,
            0.22832880261317137
          ],
          [
            -0.1541385346641974,
            -0.27091126018448053,
            -0.35672673442069885,
            0.012555929356323433,
            0.1357521571509145
          ],
          [
            0.7495725032626007,
            -0.3433555710912089,
            -0.40055408795014197,
            0.11994291007419075,
            0.02652479728586631
          ],
          [
            0.7383363899005398,
            -0.6435410870852435,
            -0.10851661911688315,
            0.10683390960549592,
            -0.005005072298306759
          ],
          [
            0.2664995338542692,
            0.07208058741332661,
            -0.4161119193349935,
            -0.29788796970228976,
            0.14939257339797535
          ],
          [
            -0.21233152313862716,
            -0.0535256995993996,
            -0.6215686758192353,
            -0.4378036030661111,
            0.22933354513593315
          ],
          [
            -0.5578067851977404,
            -0.040843134378009044,
            -0.06567474260263861,
            -0.2749077954010356,
            0.1588775719799547
          ],
          [
            -0.3183977720364496,
            0.4664545207650536,
            0.28428227072721357,
            -0.04507164032530699,
            0.19876736821358687
          ],
          [
            0.34160425605910905,
            -0.23502729831071253,
            0.28504235003168066,
            0.07270165548692553,
            0.06813610874035395
          ],
          [
            0.08540825921608634,
            0.06651093606342018,
            0.32356400001593266,
            -0.06704620030009077,
            0.24898612301071515
          ],
          [
            -0.12333335623971838,
            -0.18487410945800492,
            0.050611082956862265,
            0.055731964844379124,
            0.1409172014897746
          ],
          [
            -0.14367786587578354,
            0.23250068673316937,
            0.4035846422581244,
            0.2824580107477379,
            0.14768608346913523
          ],
          [
            -0.19700459303005174,
            -0.1885981331634121,
            -0.07227337924469761,
            -0.01311094543633416,
            -0.14441908155565375
          ],
          [
            -0.025241198740607436,
            0.080859572242316,
            0.2186561306898027,
            -0.11092304860468845,
            0.10714906534232858
          ],
          [
            -0.020120062230062515,
            -0.04309174179302746,
            0.10886385002591978,
            0.06727544247213013,
            0.08237282965321016
          ],
          [
            0.0727807024416284,
            0.18288413573393006,
            0.005796856991827903,
            0.04487788256299525,
            0.15784404357327808
          ],
          [
            0.031094127577634748,
            0.08948400867590682,
            -0.08209927767459321,
            -0.10824401662781309,
            0.11201978235127154
          ],
          [
            -0.0581127400326262,
            -0.07208465445086153,
            -0.09916591649854964,
            0.006316865388551656,
            -0.060667849775961645
          ],
          [
            0.036186812634934534,
            -0.030033974560896258,
            -0.15547136592152488,
            -0.12987627530979162,
            -0.12380754308152747
          ],
          [
            -0.13237122145119468,
            0.02063691635264813,
            -0.20118814442688424,
            -0.15299701183377337,
            -0.09217580992316125
          ],
          [
            -0.2717965786564363,
            0.11660486655407702,
            -0.24184086827909518,
            0.062421439642421854,
            -0.06168276125266953
          ],
          [
            -0.22623401919115763,
            0.07293666112850036,
            -0.018635987498974826,
            -0.041590712113065316,
            0.15836116008899997
          ],
          [
            -0.10164942028190581,
            0.03039902042369148,
            -0.08523105994129035,
            -0.036899136852332974,
            0.11885553876199917
          ],
          [
            0.21263383655046134,
            -0.049507508222864746,
            0.025030715812353988,
            -0.03659795931436105,
            -0.08295259415045941
          ],
          [
            0.1038287033007374,
            -0.077048755309128,
            -0.09502945622136848,
            0.07532806308023356,
            -0.09545927702594847
          ],
          [
            0.19339568404103127,
            0.09658522090007769,
            0.039615540019597134,
            -0.05945937385328795,
            0.12218986769600472
          ],
          [
            0.15398037528897426,
            0.09711336309264068,
            0.06524120964728247,
            -0.0670646533165485,
            -0.021604655852710396
          ],
          [
            0.1465964723027509,
            -0.03428793690741183,
            0.06180034661924607,
            -0.1143848250896839,
            -0.0938281589006076
          ],
          [
            0.08628300641858866,
            -0.029791532795381437,
            0.02330578842491948,
            0.02565338113499013,
            0.14972271508116658
          ],
          [
            0.198129114365672,
            -0.2529638970301908,
            0.04694254654109341,
            0.031025772064842354,
            0.0887404574280163
          ],
          [
            -0.009844973067987846,
            -0.042286227014750356,
            -0.10726856316908588,
            0.03245126863411716,
            -0.03473383846539302
          ],
          [
            0.16650807936873652,
            0.02441646836035922,
            -0.13755807068952264,
            0.038021861626220364,
            -0.041172013941176124
          ],
          [
            -0.07833053783614406,
            0.1486335376225868,
            -0.15643306004115756,
            -0.15690482642787335,
            0.019947625647262313
          ],
          [
            0.14556652016181176,
            -0.06492398087569384,
            0.12615121055151146,
            -0.06321156414350565,
            0.044114037174822415
          ],
          [
            0.08024224809752949,
            0.03475267646588971,
            -0.11997567149871123,
            0.1500270060400248,
            0.14752994541907713
          ],
          [
            -0.11880733580446859,
            0.07893635943018859,
            0.12489526371673755,
            -0.054192203207811714,
            0.07931975220066104
          ],
          [
            0.08383337274666461,
            0.10864838636292287,
            -0.06431399848731931,
            -0.044500536361003235,
            0.08006028022595703
          ],
          [
            -0.05558919915733466,
            0.08436163031457884,
            0.12010838663135107,
            -0.06735428154944334,
            -0.03454004545375092
          ],
          [
            -0.2392987555402245,
            0.002827483638694116,
            -0.08451777312868804,
            0.06666097945384886,
            0.020222184307247017
          ],
          [
            -0.43946344412748084,
            -0.1414471113988701,
            -0.09484641338309911,
            0.15027210597596066,
            0.1647115093774511
          ],
          [
            -0.4885861211576786,
            -0.23196651893781164,
            0.08677845128244648,
            0.3901053629867484,
            0.046505971578127546
          ],
          [
            -0.2397708544934423,
            -0.03448734234948404,
            0.1721000286044655,
            0.05845864575151756,
            -0.05322909093178187
          ],
          [
            0.1457980509232965,
            -0.23630599765144863,
            0.17962784518688468,
            -0.07519280025672785,
            -0.015604751891240956
          ],
          [
            -0.05852994246975758,
            -0.08236952327300451,
            0.10722545029171443,
            0.042554292519323224,
            0.05225663167795794
          ],
          [
            -0.06706460979799404,
            0.11416942681358933,
            0.28278097724123585,
            0.07714981867764252,
            0.06672545151298981
          ],
          [
            0.053291258564586864,
            0.09274325271622498,
            0.15957416250632306,
            -0.04463633514182898,
            -0.005326566295962771
          ],
          [
            0.1804839919761019,
            0.2842658133804467,
            0.1382892655912102,
            -0.14943248623156405,
            0.05529168709010866
          ],
          [
            0.0931412040250527,
            -0.014766714365007004,
            0.09864539093473708,
            -0.0018291740321342647,
            -0.07649189955563951
          ],
          [
            -0.07636776473983131,
            0.10124642664674907,
            0.06118230844795758,
            -0.1302870635276758,
            -0.1267125323737388
          ],
          [
            -0.24038539329853176,
            0.001282843961608251,
            -0.07019163403505255,
            -0.0009856388057983031,
            -0.13622987994036048
          ],
          [
            -0.3686583637838246,
            0.28775504519629497,
            -0.15630281991550862,
            -0.19987714728114012,
            -0.1100447417924651
          ],
          [
            -0.19689441813063782,
            0.2605839383852327,
            -0.3213386783776667,
            0.05715259034605046,
            -0.004045329147005797
          ],
          [
            0.21565669087717365,
            0.3694466187624152,
            -0.20156766301934526,
            0.18283338146280087,
            -0.10130336307786106
          ],
          [
            0.5925342870366975,
            0.32152062623979233,
            -0.11931299339633755,
            0.151374931866932,
            0.04555412620799385
          ],
          [
            0.2662764122911679,
            0.13719895138907515,
            -0.14612461447387998,
            0.2840317644911505,
            0.1159156679515913
          ],
          [
            0.24814390385634402,
            0.22505679765677056,
            -0.09911809200242207,
            0.04551681530155779,
            -0.0791690131391502
          ],
          [
            -0.008681793778543574,
            0.010869578779814709,
            -0.2372964347551812,
            -0.04817461466066063,
            0.11095992048466433
          ],
          [
            0.10550096338613221,
            -0.42462673570328613,
            -0.06765657933543985,
            -0.07984376441115727,
            0.0557969717200802
          ],
          [
            0.19483435465534396,
            -0.4275083720139225,
            -0.2486648887337697,
            -0.2448877454699837,
            0.16062125332439312
          ],
          [
            0.28493549481647,
            -0.5540056098894082,
            -0.3634884438894494,
            -0.2525388693951453,
            -0.11361390926311886
          ],
          [
            0.2941954657063789,
            -0.09451482890797851,
            -0.25414790785910407,
            -0.3107953904923819,
            -0.07033519414896017
          ],
          [
            0.0893352573935003,
            -0.20959471627201565,
            -0.14172351809648706,
            -0.013688481818614104,
            0.004004065010261078
          ],
          [
            -0.11541418828214549,
            0.05374643195748621,
            -0.14261699213647888,
            -0.048013941167332125,
            0.07087601587439814
          ],
          [
            -0.09725680471341915,
            0.19810956522080217,
            -0.23173091176390978,
            -0.09925432408853467,
            0.07082464963861704
          ],
          [
            -0.07683033468398208,
            0.02557101363102557,
            0.11935758947561087,
            0.011487265226981234,
            -0.12967881292958014
          ],
          [
            0.17442225831450087,
            0.16324879799546066,
            -0.09275616100715883,
            0.1244387585741699,
            -0.043037329105229935
          ],
          [
            0.007152283422970145,
            0.00948715953429181,
            -0.06348930844185754,
            -0.07363194816608311,
            -0.005777336869475333
          ],
          [
            -0.12104486465691706,
            -0.20041864482103605,
            -0.193661312016121,
            -0.08176459774305604,
            0.16041809644520544
          ],
          [
            -0.17383924669211134,
            -0.35936104483836523,
            -0.022297685159167035,
            0.25287238660510014,
            -0.12164991151373294
          ],
          [
            -0.5269082816238236,
            -0.45956445673364055,
            -0.18094634109415048,
            0.5079377545137678,
            0.00481918791349286
          ],
          [
            -0.259501722294531,
            -0.16259825298928618,
            0.14181382309809526,
            0.20265380172670663,
            -0.12109618477060347
          ],
          [
            -0.18181696427376431,
            0.007398179719656167,
            0.15958572850010375,
            0.16028763630563633,
            0.014231981116501641
          ],
          [
            0.24049799434453917,
            -0.15315677599470431,
            0.6724953468443549,
            0.02806180910498685,
            -0.046889887314110784
          ],
          [
            0.044084461552192214,
            -0.20705165755987084,
            0.6643485015213839,
            -0.052725566135749094,
            0.1114833401319353
          ],
          [
            0.03664432956489975,
            0.3410140799156447,
            0.8488512836783919,
            -0.2959106973780448,
            0.1082309148919177
          ],
          [
            0.12053772726909176,
            0.2600881026015332,
            0.9682240641289939,
            -0.28257702277626295,
            0.0752146215919851
          ],
          [
            0.10769217580429143,
            0.30430195734622933,
            0.5577703215082502,
            -0.10653727028536379,
            0.02156972216652036
          ],
          [
            -0.29598633966546284,
            0.13102923080993875,
            -0.03665444225752576,
            -0.09086800328372127,
            -0.14426636958274572
          ],
          [
            -0.5350896094304897,
            0.4853152142295808,
            -0.26376042755527207,
            -0.12846014810688192,
            -0.0902495972112371
          ],
          [
            -0.9185451290310416,
            0.6039576188756721,
            -0.2703039285219067,
            -0.320875270451531,
            0.18697228486729847
          ],
          [
            -0.9526088656775332,
            0.6128918922916973,
            -0.4804837494149504,
            -0.15350957452308733,
            0.002419300728231145
          ],
          [
            -0.9679247020646713,
            0.8633360106784398,
            -0.7447234452328653,
            -0.3083618145554286,
            0.07715351675775302
          ],
          [
            -0.05910884242566441,
            0.7682922792696961,
            -0.29292489414812545,
            0.17566086438103823,
            0.08567619182565807
          ],
          [
            0.505124471629709,
            0.7092957518114216,
            -0.437139269974938,
            0.36035750260743965,
            0.13384765713871777
          ],
          [
            0.5265498640871329,
            0.4707217242994695,
            -0.08219127985366206,
            0.29929486040704545,
            0.11361104723189895
          ],
          [
            0.17475504478568712,
            -0.055849310638357214,
            -0.2614307892943019,
            0.19595695956401035,
            0.1407983397699652
          ],
          [
            0.15413450103912396,
            -0.26094258786627084,
            -0.24456974339831608,
            -0.026171852812078653,
            0.0024666372642880045
          ],
          [
            0.4481641762159063,
            -0.4987787094379766,
            -0.4900919878946645,
            -0.28265617836612034,
            0.011910058995704612
          ],
          [
            0.6475045573033744,
            -0.8186335183795774,
            -0.5441764408547032,
            -0.5145119896285191,
            0.10431421477642598
          ],
          [
            0.5822256117819071,
            -0.6908604627074831,
            -0.3823391194143024,
            -0.47874576754552284,
            0.11417809450379207
          ],
          [
            0.2073598941615913,
            -0.38507086320175443,
            -0.3062378805652318,
            -0.3492808642997236,
            -0.014632286513168514
          ],
          [
            0.3472451114797594,
            -0.2261591282302478,
            -0.3735898883397777,
            -0.1302243967234336,
            0.10092663238179374
          ],
          [
            0.0720476919906215,
            -0.09424867136956935,
            -0.38668466439684557,
            0.003845465300625018,
            -0.06301624407897496
          ],
          [
            -0.12254632069853108,
            -0.025456866467407985,
            -0.22882307940915264,
            -0.10169468883754483,
            -0.038607957961902285
          ],
          [
            0.034788703385223566,
            0.09314356823231137,
            -0.2081231361079592,
            -0.12315819807221919,
            -0.1534616440846184
          ],
          [
            0.2312253589422476,
            0.07686816050731629,
            -0.06282515054831712,
            0.13844797435506095,
            0.10849409040194165
          ],
          [
            0.2578968625209028,
            0.2315999009147704,
            -0.1550100799561439,
            0.1341896856783641,
            0.08663623607507806
          ],
          [
            -0.007937998609120561,
            -0.16688823995804342,
            -0.14877880935065535,
            0.1105539868033986,
            -0.015356020817452977
          ],
          [
            0.05056978091858991,
            -0.6199625295889531,
            -0.03477203826095165,
            0.32779980724874785,
            -0.0742725267586581
          ],
          [
            -0.31247826046285965,
            -1.0825971087350024,
            -0.20930790712481312,
            0.8988179877479109,
            -0.1085894511774637
          ],
          [
            -0.6161127064887916,
            -0.5199384378180111,
            0.10766603225837124,
            0.5968188194351401,
            -0.0570168871321858
          ],
          [
            -0.3069298569711291,
            -0.05300325170930296,
            0.8295596962298531,
            0.35112661328088796,
            0.05193657985480863
          ]
        ]
      },
      {
        "activation": 1,
        "biases": [
          -0.401866576833171,
          -0.25838877057723764,
          -0.23141086117662096,
          -2.569512809241297,
          -4.17486714894258
        ],
        "cols": 5,
        "rows": 5,
        "weights": [
          [
            4.804711772939983,
            -4.345269878136061,
            -5.65204101180802,
            1.1659421776041663,
            4.05038188810677
          ],
          [
            -5.2819951925746205,
            -4.645551441513332,
            5.290377646036607,
            0.8838804754678007,
            3.844785462318331
          ],
          [
            -4.473655059902433,
            0.023722968519445886,
            -3.5293399694172307,
            8.909233950743872,
            -3.0149339108695026
          ],
          [
            -3.8990233913798233,
            5.173434765958978,
            -3.554836241734519,
            -1.4373239194712355,
            4.731061669090292
          ],
          [
            0.024080357599013957,
            -0.40930483134697565,
            -0.4710514653015844,
            -3.199697125210585,
            -4.620176253026831
          ]
        ]
      }
    ]
  }
}
