{
  "labels": {
    "labels": [
      "3",
      "1",
      "5",
      "6",
      "2"
    ],
    "rows": 5
  },
  "mlp": {
    "layers": [
      {
        "activation": 1,
        "biases": [
          0.04386630453306141,
          -0.07100555526234067,
          0.07284925619440748,
          0.020882004700881474,
          -0.05347830654955085
        ],
        "cols": 5,
        "rows": 210,
        "weights": [
          [
            -0.05960537236592722,
            -0.10626865321073042,
            0.5064589152862073,
            -0.0956947681883802,
            -0.20386929286382277
          ],
          [
            -0.021377968283781988,
            -0.27350351154371816,
            0.2828458662357957,
            -0.3404487065170814,
            -0.17728505800534153
          ],
          [
            0.33081482585027805,
            -0.3839898301215488,
            0.196052817585759,
            -0.25092602786341944,
            -0.29798278128043887
          ],
          [
            0.3647540722976042,
            -0.30471330099245036,
            0.3167743538088435,
            -0.08256117437456229,
            -0.48803149734907564
          ],
          [
            0.10557993623301987,
            -0.21114268717597964,
            0.10191458759057427,
            -0.07237870932342848,
            -0.07113865020578246
          ],
          [
            0.002534688948215941,
            -0.1350501992691172,
            0.033189351192113685,
            -0.047769217538766624,
            -0.0811451359598818
          ],
          [
            0.11673850936455689,
            -0.13520943772081534,
            0.09977518970491749,
            0.012162126289111168,
            0.042294800032702265
          ],
          [
            -0.14361945110126692,
            -0.055911590677869494,
            0.16797136844489696,
            0.11714966782833695,
            -0.13224583760961428
          ],
          [
            0.11689824196662182,
            -0.03876458929287063,
            -0.053258820367452754,
            0.2905817859109942,
            0.07510368845816288
          ],
          [
            -0.1382475321531797,
            -0.0027892797354594004,
            -0.007406387990986432,
            0.26562138108340216,
            0.09365725039851375
          ],
          [
            0.10969416590341334,
            -0.08651674569732151,
            0.02007384307986087,
            0.1502785583084002,
            -0.1447183988657996
          ],
          [
            0.11186105485202075,
            0.07084849845842324,
            -0.03965985558106125,
            0.40734173246947286,
            0.03284779715222795
          ],
          [
            -0.015087688609471739,
            -0.1043339006296837,
            -0.009735723926278993,
            0.24960119583941565,
            -0.15132571375078205
          ],
          [
            -0.06645530101410287,
            0.028339921512044043,
            -0.0029272249839482,
            0.032853815328694816,
            -0.1546614903268806
          ],
          [
            0.0765077778342876,
            -0.0864449235670144,
            0.01586264663190006,
            0.10603958395162988,
            0.039387865557131356
          ],
          [
            0.04789531895550757,
            -0.007024194565583058,
            -0.16264912157686606,
            0.1290546221968098,
            0.24115171361496204
          ],
          [
            0.061332555066776394,
            -0.2928577690547875,
            -0.3196632005526117,
            -0.06885013684207272,
            0.27873769591482717
          ],
          [
            -0.01121638311415789,
            -0.3880603389558318,
            -0.156895215166223,
            -0.19964709740768702,
            0.36245261318015304
          ],
          [
            -0.14650333788162737,
            -0.21775598595424678,
            -0.25773941654927723,
            -0.1505692067609529,
            0.17558468238055358
          ],
          [
            0.11654073026370544,
            -0.10922452693397738,
            -0.11106481704245168,
            0.15385287150334923,
            0.21421861453958818
          ],
          [
            -0.26846351387863676,
            -0.34628963314240274,
            0.2937050844404643,
            0.4774367532058225,
            0.28139449916272097
          ],
          [
            -0.22511183023571738,
            -0.31480986505854613,
            0.1773267723538073,
            0.4005613731991448,
            0.1782293268260846
          ],
          [
            -0.10081820848716284,
            -0.18892235311922645,
            0.1988523679379321,
            0.21633264751161985,
            0.11801286903915299
          ],
          [
            0.06985783173527428,
            -0.07373927492892592,
            -0.0964497714230926,
            0.12575648611665075,
            0.068414602478343
          ],
          [
            0.14992512003271163,
            0.09593115178538009,
            -0.20773255177372174,
            0.24189694966849093,
            -0.3177163888220456
          ],
          [
            0.2458138226137476,
            0.40161382101669874,
            -0.06852990307985331,
            0.2625059481689327,
            -0.10080540041632506
          ],
          [
            -0.13383810088184372,
            0.2699614696951864,
            0.020397040874801958,
            -0.14020244150583064,
            -0.046018117981844395
          ],
          [
            -0.25050005284623544,
            0.37132447184595957,
            0.06652381341621054,
            -0.1624372221707841,
            0.15781595072065252
          ],
          [
            -0.46805362252871613,
            0.3780610242126395,
            0.35742699039236797,
            -0.12527616057600896,
            0.27762050258244386
          ],
          [
            -0.15112331586625405,
            0.22805563966377482,
            0.4513250743978038,
            -0.10939323946428534,
            0.16821444090121845
          ],
          [
            -0.0026843763071379458,
            -0.05385206725210503,
            0.08423053383827031,
            -0.1667595720559154,
            0.1045614811829709
          ],
          [
            -0.0750178435944696,
            0.01337142304126239,
            0.34225643039588416,
            -0.004588746613041979,
            0.02973483288044648
          ],
          [
            0.13670825947294,
            -0.28090863827298235,
            0.06337311074096352,
            -0.0029642136786467072,
            -0.281402523434252
          ],
          [
            -0.0034710925314839916,
            -0.0722893056282404,
            0.20426084961477958,
            -0.06356911476772999,
            -0.17892205771761022
          ],
          [
            -0.0801477718409868,
            0.04063373056038427,
            0.04527980619479415,
            -0.0732311039241817,
            -0.042895219587150105
          ],
          [
            0.0937829315810989,
            -0.0768053816644347,
            -0.07304502607051985,
            -0.016275437792824542,
            -0.022002306868716702
          ],
          [
            -0.06999947561352157,
            -0.16474355938678573,
            -0.03926403273357686,
            0.04816079760794122,
            -0.017145591336847663
          ],
          [
            0.10764455423291248,
            -0.021415299107230206,
            0.027081109507094896,
            0.005594121809461982,
            0.0964727765312806
          ],
          [
            -0.029700488103031976,
            -0.2074496586259511,
            -0.02397779304792817,
            0.13865577346824165,
            0.037637084832228954
          ],
          [
            0.08120926195075254,
            0.03891295117831073,
            0.02216246308431825,
            0.16127978674912322,
            -0.046923423929418354
          ],
          [
            -0.15094544008961255,
            -0.031038509205404848,
            0.14207544425464824,
            0.15772060746617397,
            0.02017042305394801
          ],
          [
            0.035669869377177955,
            -0.02650528827624602,
            0.15432532042267794,
            0.2779024987084331,
            -0.056801335356492434
          ],
          [
            -0.1504987821051148,
            0.036529826209235325,
            -0.027758106108020514,
            0.014777965688708648,
            0.053252748429624706
          ],
          [
            0.08761197760618816,
            0.047539001784010694,
            -0.046610477733530296,
            -0.09244519469708293,
            -0.17971904704195427
          ],
          [
            0.18684254318885227,
            0.10155881959844626,
            0.032602349931785395,
            -0.10089801122855836,
            -0.15742957241619085
          ],
          [
            0.03332514432987854,
            -0.05059450158233217,
            -0.03959353206032931,
            -0.21535169162190737,
            0.23173828314056644
          ],
          [
            0.0989321789647904,
            -0.1428193141670339,
            -0.3159683637512611,
            -0.23883888701911718,
            0.002770825845763906
          ],
          [
            -0.06017324906809982,
            -0.14980565106509636,
            -0.30855663389612065,
            -0.2345811236276494,
            0.1399814568736413
          ],
          [
            0.11902484216374809,
            -0.03680256663128119,
            -0.019591485419087694,
            -0.11987060536754575,
            -0.017163864651667454
          ],
          [
            0.04116891882743843,
            -0.19867624819554952,
            0.10605446420909241,
            0.09844031369301325,
            0.020093470467756332
          ],
          [
            -0.06860192746374245,
            -0.23231213250991442,
            0.19466333851426293,
            0.3183538917896089,
            0.07842226090903655
          ],
          [
            -0.17587265929099669,
            -0.07839786327647066,
            0.09364281085975795,
            0.18346036764172138,
            0.01066994066967393
          ],
          [
            0.0708089352794949,
            -0.22175431083697583,
            0.043409983200795324,
            0.13351111663706478,
            0.019620381725593532
          ],
          [
            -0.008707951770338784,
            -0.009179770977033532,
            -0.137219629251468,
            0.18926652665655336,
            -0.10559353486838396
          ],
          [
            0.24732331771824098,
            0.05535756527544102,
            -0.1572421801346547,
            0.40848740079416135,
            -0.29695410907941394
          ],
          [
            0.07842181537919377,
            0.2364143792520959,
            -0.2144591066868851,
            0.12708943708932638,
            -0.1362712792880014
          ],
          [
            -0.27979369567809076,
            0.08377841406990652,
            -0.0034625734717278487,
            0.1599744827824555,
            0.17599516811329963
          ],
          [
            -0.2438607281160158,
            0.05103102524209315,
            0.27277640991609853,
            -0.10149575072489297,
            0.2613828367150074
          ],
          [
            -0.27759555216609877,
            0.1671306224650401,
            0.11009191366479575,
            -0.19801242465545857,
            0.16814070716589893
          ],
          [
            -0.26344726788635786,
            0.3197177692866011,
            0.14863010953762132,
            -0.08453290417184932,
            0.09121937147250048
          ],
          [
            0.1362087602086906,
            0.5089982691422104,
            -0.27261672703930023,
            -0.23365424559265993,
            -0.39150276914506527
          ],
          [
            -0.17016590638232004,
            0.29404057863277044,
            -0.12129540421741433,
            0.11926304067297656,
            0.0909959221070027
          ],
          [
            -0.41576464702701077,
            0.11447856742021204,
            -0.11074037603984561,
            0.17891573586958323,
            0.4254160991609735
          ],
          [
            -0.13939071145470933,
            0.4716259664826994,
            -0.31426855281875116,
            0.4608304236392483,
            -0.2145477895193167
          ],
          [
            0.2158219795955933,
            0.28152092512796606,
            -1.0324436692672991,
            -0.07662829086276109,
            0.29922034049927787
          ],
          [
            0.11524393821690938,
            -0.1721002730942551,
            -0.7758884808266074,
            -0.8025059571484204,
            0.01481614931461517
          ],
          [
            0.5969523215861041,
            0.005962593613281857,
            -0.8767019725594001,
            -0.19140173008755698,
            -0.2883947164407844
          ],
          [
            0.17493571023799442,
            0.16177278054049818,
            -0.6025172539278111,
            -0.2620704481869224,
            -0.06354401394388697
          ],
          [
            0.13082601584892423,
            0.390454033929457,
            -0.007925572233181256,
            -0.10632452932552913,
            -0.27152272817208845
          ],
          [
            0.09221293199001612,
            0.3584683844831116,
            0.2344079298653287,
            -0.22362803794720557,
            -0.5815783970278977
          ],
          [
            0.21175309764656372,
            0.628855506358506,
            0.08665368894294789,
            0.07629439893808668,
            -0.3825284340212409
          ],
          [
            -0.011987560459667515,
            0.28090127230889556,
            -0.05256189677387962,
            0.06937944337455018,
            -0.0036457487939361858
          ],
          [
            -0.41099987934470067,
            0.3813944677517804,
            0.2544328794924513,
            0.037027552805110386,
            0.19264824210958995
          ],
          [
            -0.6846416845893761,
            0.10571580445964844,
            -0.04072339126632988,
            -0.034092211978300625,
            0.5976751281415569
          ],
          [
            -0.2754960162953233,
            0.030231472926151297,
            -0.37982560199193866,
            -0.2509471846078658,
            0.22808559683444227
          ],
          [
            -0.19294057557507593,
            0.08579124770155085,
            0.5055389689190763,
            0.008615795768415235,
            0.0742742095741998
          ],
          [
            -0.49571655463859643,
            -0.11583039873235347,
            0.3314974972268838,
            0.05570764275669541,
            0.3458058799441638
          ],
          [
            -0.013651018013959928,
            -0.5573324980858476,
            0.2395700351401926,
            0.006359989254399897,
            0.34389029316329905
          ],
          [
            -0.03977324403049917,
            -0.6992745961347522,
            0.6243499671838943,
            0.19159379461092813,
            -0.009184141828982173
          ],
          [
            -0.12362534164856849,
            -0.010787449612212913,
            -0.13103763586510295,
            -0.7125565701813813,
            0.2980338629593973
          ],
          [
            0.1504364196789967,
            0.0099482732703024,
            -0.06853204532846692,
            -0.23169883159118426,
            -0.23809757892034755
          ],
          [
            0.19434587469661957,
            1.073875533925249,
            -0.2906076352425255,
            -0.4898129180200613,
            -0.30990324034696437
          ],
          [
            -0.4823888190939348,
            0.6652163406440734,
            0.25590480462726334,
            0.48041958310926275,
            -0.020208935678138532
          ],
          [
            0.19086052294813138,
            -0.2928547971782324,
            0.09640451088544792,
            -0.18222123773348473,
            0.11317917929396387
          ],
          [
            0.2488999937652378,
            -0.1334838939877278,
            -0.30142568818784543,
            0.250146729929542,
            -0.03596902616169761
          ],
          [
            -0.8804967683133674,
            0.4690879475814642,
            -0.08935742915999074,
            0.5199329750901678,
            0.6130775852739021
          ],
          [
            -1.2381379806235002,
            0.6512768141417409,
            -0.2241078364872532,
            0.12259333655918299,
            1.0823171219532273
          ],
          [
            -0.2316067008347561,
            -0.1977425292227764,
            -0.03837441550379904,
            -0.19878964902073407,
            0.20635724307624126
          ],
          [
            -0.42609264063443886,
            0.23792901049068568,
            0.6483675262712187,
            0.48796564217775484,
            -0.059947550593990845
          ],
          [
            -0.3463629025909056,
            0.198763958421053,
            0.285817921130481,
            0.25519157209235094,
            -0.02104520901103712
          ],
          [
            0.4543874073341426,
            0.0021045713173379454,
            -0.09790041009038497,
            -0.22840065863227585,
            -0.5132820495065211
          ],
          [
            0.21826278836779575,
            0.15779194221833848,
            -0.09650242370487597,
            -0.22004828515750188,
            -0.08129074786922477
          ],
          [
            -0.2629361795186966,
            0.24992010948675863,
            -0.15820274316388996,
            0.18485701788019265,
            0.1827116750078569
          ],
          [
            0.36326120721527444,
            0.1365959365908764,
            0.1866391423774329,
            0.3460638903707707,
            -0.23862161910665575
          ],
          [
            0.7363985694210016,
            -0.9042643221091489,
            -0.6719179794562824,
            0.12395230743885799,
            0.07084334370720105
          ],
          [
            0.06985295836416097,
            -0.34515031558566417,
            -0.25654341411878,
            -0.6235163940195444,
            0.30195358464686267
          ],
          [
            0.5251723608263633,
            -0.5427882235495486,
            -0.24392317879446143,
            -0.2024344522205497,
            -0.34830011250333176
          ],
          [
            -0.10050382701091545,
            -0.21988382762247985,
            -0.2720402626645754,
            -0.06430335799547097,
            0.3381546348350674
          ],
          [
            0.29191306668790756,
            -0.3617958435807052,
            -0.0677515338720474,
            -0.16957080250775902,
            -0.05278495545116611
          ],
          [
            0.3617347061062339,
            -0.16533739310340947,
            -0.022871133867833873,
            -0.13178750277825962,
            -0.13612999920629107
          ],
          [
            -0.18602914629925055,
            0.2615030502821372,
            -0.07935848980195584,
            -0.07144026543810045,
            0.2617046674538904
          ],
          [
            -0.365399272098138,
            0.2966773783878544,
            -0.1411533968962598,
            -0.09044838882609305,
            0.1037816149042502
          ],
          [
            -0.05808805379040779,
            0.4434040988347729,
            0.1286327183520387,
            -0.02004947404368027,
            0.07007281160418252
          ],
          [
            0.2805900696370992,
            -0.40657162607252045,
            -0.039192191792648774,
            0.1020328369236534,
            -0.029382619691386332
          ],
          [
            0.16624476387521528,
            -0.40232328840841747,
            -0.2800021154736735,
            -0.27501061474644883,
            0.07597636183279205
          ],
          [
            0.006049758017277908,
            -0.08868170725740208,
            0.2522225461971021,
            0.17629477614749517,
            -0.1439442693547979
          ],
          [
            0.07835171869928408,
            -0.10833749872617197,
            0.22514221744437785,
            -0.23529203895869547,
            -0.27813380987029235
          ],
          [
            0.19235857892866992,
            0.03278428252753226,
            0.6468333035940287,
            0.06374948566450879,
            -0.43783463492363345
          ],
          [
            -0.19914323494686764,
            0.28434595164009674,
            0.34916809440559765,
            0.1190526443456181,
            0.013141640138402053
          ],
          [
            0.11910491161684404,
            0.44499306294221813,
            -0.46523678167413857,
            -0.6000941110565846,
            -0.06615296275602721
          ],
          [
            0.3316368514574151,
            0.4708646729445606,
            -0.2680184723750773,
            -0.2676146415575196,
            -0.2437781315405405
          ],
          [
            0.09797755912217262,
            0.5116125818744147,
            -0.4818659179122227,
            -0.46443893177456785,
            -0.3119782575385726
          ],
          [
            -0.41439037560664543,
            0.43497030682826626,
            0.13799772051155343,
            0.4142979001653875,
            0.08511920083603497
          ],
          [
            -0.33867993607138125,
            -0.7293928476266992,
            0.17780276607375783,
            -0.09946714818328296,
            0.5765821807987901
          ],
          [
            0.04164865334285532,
            -0.20513755843420464,
            -0.12893809795005312,
            0.34655680835955616,
            -0.015153305293436498
          ],
          [
            -0.6372407988650581,
            0.16725020507332883,
            0.5277461058571686,
            0.1466293301654185,
            0.4069955905062352
          ],
          [
            -0.5051150443715612,
            -0.372956257766358,
            0.22463780614073026,
            -0.029769698154314954,
            0.6322359975671952
          ],
          [
            0.13588083679105753,
            -0.7489828641220048,
            -0.04036039504491927,
            -0.1435589754541097,
            0.5146104192151485
          ],
          [
            0.2740879223964869,
            0.2838486281241609,
            0.6689430761376823,
            0.27905302500877965,
            -0.5632198374629451
          ],
          [
            0.07822672283284263,
            -0.09330087916105465,
            0.5649010421111585,
            0.40665158785602185,
            -0.4556784115411194
          ],
          [
            -0.05458427894218181,
            -0.15286726819771979,
            0.03796729793906049,
            -0.16464650505184739,
            -0.27938507345353025
          ],
          [
            0.029226707174609082,
            0.05057275903754418,
            0.29975539192228495,
            -0.17197273831639734,
            -0.012511318196716427
          ],
          [
            0.07240646275995088,
            -0.17085958294119574,
            0.12947661760144868,
            0.022851840610391614,
            -0.07031325799414627
          ],
          [
            0.18679218855040858,
            0.00606556586531732,
            -0.013046471956150989,
            0.02764944806823896,
            -0.014021022825836543
          ],
          [
            0.11116341850032507,
            -0.045457704836733906,
            -0.09498774901636194,
            -0.09713078212101348,
            0.005101322051734237
          ],
          [
            0.015367426874331356,
            -0.1562431915128185,
            -0.06221405793367041,
            0.03534683302140418,
            -0.10592862445725015
          ],
          [
            0.1498389129252597,
            -0.10089364388680917,
            -0.0764317165540705,
            -0.07724695473829582,
            -0.13552442155176106
          ],
          [
            0.03304482601494728,
            -0.07033003867546571,
            -0.07901840071555455,
            -0.0899815151109937,
            -0.09655408064360936
          ],
          [
            -0.06309183080703741,
            -0.017268610660795932,
            -0.07657031562617858,
            0.12867783402800892,
            -0.07156452099456531
          ],
          [
            0.009726942016135815,
            -0.10602164674202215,
            0.18079269218816824,
            0.01926767087528693,
            0.13707476805785046
          ],
          [
            -0.014300365143244788,
            -0.1197446441712242,
            0.06049582382196507,
            -0.021788484634803453,
            0.09296656902143066
          ],
          [
            0.16153372648670583,
            -0.1473886530267451,
            0.10887060706773175,
            -0.054086460735528176,
            -0.10531090441049741
          ],
          [
            0.01568058093375101,
            -0.13445160742052767,
            -0.03867691266219681,
            0.07690703776618313,
            -0.11430866482156517
          ],
          [
            0.10125490425361988,
            0.0655185605483185,
            0.09689540796880244,
            -0.01347528619168297,
            0.10723795578738173
          ],
          [
            0.08942541202801163,
            0.095397532967175,
            0.11892037655527617,
            0.00010442914708310076,
            -0.023863653830203974
          ],
          [
            0.08613540727526385,
            0.013019676481553309,
            0.17316011621127778,
            -0.05298693716423874,
            -0.0837170865403961
          ],
          [
            0.008011075579993789,
            0.041767285793417146,
            0.18581261360650256,
            0.0756139887390079,
            0.17088276743494032
          ],
          [
            0.10789468477530674,
            -0.23675960475833177,
            0.14054615682314453,
            0.06261938040288664,
            0.11995285943544562
          ],
          [
            -0.05623246586549478,
            -0.06040912592719794,
            -0.09397217281502229,
            0.029161550349996117,
            -0.00529647844925918
          ],
          [
            0.15288248771266774,
            -0.008702987463478643,
            -0.15835551294193118,
            0.034469568678853896,
            -0.014582511642693847
          ],
          [
            -0.0979857537833558,
            0.07659402383082956,
            -0.13022845449622633,
            -0.07644556351541738,
            0.059105809415841384
          ],
          [
            0.12923056121211363,
            -0.12731238619164228,
            0.15481737339414742,
            0.007016338336923244,
            0.07645119209637212
          ],
          [
            0.07537768844802341,
            0.01598843381207283,
            -0.12388137959591078,
            0.14786639256793785,
            0.15822021254393762
          ],
          [
            -0.12430680966031481,
            0.07202927889337918,
            0.1322950114614643,
            -0.05727930490854976,
            0.08319505224138647
          ],
          [
            0.08017654198883187,
            0.11246018490978724,
            -0.023604881282279146,
            -0.0020554587296274223,
            0.08208927040604022
          ],
          [
            -0.03492108109767576,
            0.14994854626368573,
            0.1823740324005087,
            -0.0789102510693075,
            -0.029024657148136727
          ],
          [
            -0.177719706544806,
            0.1570919151655409,
            0.015398811469280356,
            -0.06640838558640293,
            0.05302800120104189
          ],
          [
            -0.29256637485268344,
            0.13845340162586448,
            0.048015170258241556,
            -0.1274940319695646,
            0.22023937663826537
          ],
          [
            -0.27233728816852565,
            0.03595706047735659,
            0.17700319075071566,
            0.0905633646931825,
            0.07776126195224671
          ],
          [
            -0.03224397817668871,
            0.10652514795921553,
            0.2623973472584294,
            -0.1716995728775367,
            -0.10461402509453822
          ],
          [
            0.0354770574334946,
            -0.11117443902025852,
            0.37218296243446325,
            -0.29811771017913236,
            -0.08834109220247342
          ],
          [
            0.036500812665705026,
            -0.16504753773889352,
            0.3407340213318095,
            -0.17758417607097138,
            -0.20079093271412501
          ],
          [
            0.21747632057634292,
            -0.26252604029760035,
            0.30487848159360603,
            -0.12394014963237163,
            -0.32318930810163615
          ],
          [
            0.3758460017765987,
            -0.4271567959033499,
            0.11316411639519287,
            -0.17415303080330347,
            -0.43655759779170444
          ],
          [
            0.39920408529290324,
            -0.08977189980122403,
            0.11060502077703557,
            -0.1681667662672493,
            -0.20411901810767286
          ],
          [
            0.17343785769512693,
            -0.23116062177810992,
            0.07710444393076468,
            0.09515073517126445,
            -0.1552234215522592
          ],
          [
            0.06240348558228078,
            -0.07518982997227752,
            0.18061910821604377,
            0.024049233360554458,
            -0.13223471032866754
          ],
          [
            -0.004363486919259375,
            -0.2188753471911102,
            0.19390378953779908,
            0.2085634170997897,
            -0.12302304891181585
          ],
          [
            -0.12167807466166941,
            -0.0689703294536275,
            0.19844479920900615,
            0.08331539980253827,
            -0.08367354872672321
          ],
          [
            0.04358270324546045,
            -0.2767496420043303,
            0.14745495346761273,
            0.41575364688295624,
            0.02233434487371095
          ],
          [
            0.09230650286756487,
            -0.307206713222104,
            0.2812028163152624,
            0.43444392640082313,
            -0.09296385913701323
          ],
          [
            0.06374546983764773,
            -0.22810577738425736,
            0.16738840164523258,
            0.25414225656246986,
            0.046938097966436616
          ],
          [
            -0.09285188497499396,
            -0.14075645886842025,
            0.0019078886920749808,
            0.3508098935247445,
            0.06791954133922089
          ],
          [
            0.03342123042121882,
            0.15021646496093688,
            -0.04891919675067198,
            0.13719769503819776,
            -0.1549115659076584
          ],
          [
            -0.12806234608773057,
            0.10648503173111261,
            -0.16590957517397145,
            0.12352868601013924,
            0.05167765382091687
          ],
          [
            -0.10436237035716164,
            -0.27197453358081053,
            0.016340846378208967,
            0.09812167318351618,
            0.09919706824360262
          ],
          [
            -0.12732392775253293,
            -0.2848839581425369,
            -0.10484730715026647,
            -0.11913620340529026,
            0.31900872665299157
          ],
          [
            -0.019770970625794172,
            -0.477511479651604,
            -0.2629785377358049,
            -0.21977378902396055,
            0.09161921596959367
          ],
          [
            0.09520075650977583,
            -0.07148700998999598,
            -0.22730256346872302,
            -0.31457772427249714,
            0.0744425562536257
          ],
          [
            -0.05535462898548625,
            -0.2811065266889126,
            -0.09407985121367363,
            0.11401163108076323,
            0.08296540114225433
          ],
          [
            -0.2961874912387806,
            -0.26666781772062204,
            0.14737617269742972,
            0.5500672211748731,
            0.2411084331596236
          ],
          [
            -0.29718769044860943,
            -0.16561426310742997,
            0.14039077913894868,
            0.5705381736976725,
            0.23950506919735376
          ],
          [
            -0.11473669447728126,
            -0.05356861205238873,
            0.14374792935238653,
            0.07263117865570183,
            -0.09018690322863612
          ],
          [
            0.11785422247973285,
            0.13311476157447272,
            -0.10488268182125104,
            0.16962622770782745,
            -0.07076022033308019
          ],
          [
            -0.02721628887871309,
            0.22774611603224224,
            -0.09037157691728834,
            0.21168652256552853,
            -0.22998164625104056
          ],
          [
            -0.005925721521348879,
            0.3448052954165404,
            -0.2229440412600808,
            0.13350753164313486,
            -0.1417395064196367
          ],
          [
            -0.10192235045966855,
            0.12970183236267946,
            0.19928314533616878,
            0.010928254641072397,
            -0.11186369822336256
          ],
          [
            -0.3903270723583977,
            0.3122536077590071,
            0.2755810412330449,
            -0.006642406228009349,
            0.16995211311038264
          ],
          [
            -0.4174116136929995,
            0.48328676794526637,
            0.47293497351606134,
            -0.2180798635235303,
            0.1533707613867236
          ],
          [
            -0.46101444121896135,
            0.3815116850575358,
            0.30468612499367415,
            -0.12413117993529853,
            0.16128839634167766
          ],
          [
            0.0004715190596953447,
            -0.06163868455715499,
            0.6871411393599446,
            -0.3280786699309542,
            -0.18629860837020104
          ],
          [
            0.06274580163405938,
            -0.4173289205308429,
            0.7058113170143064,
            -0.33549558758032,
            -0.26236209651119513
          ],
          [
            0.32514974172374134,
            -0.4386592428898243,
            0.3719661999720783,
            -0.3621299870022676,
            -0.39454565885818943
          ],
          [
            0.4887265508684555,
            -0.6815305739415448,
            0.3056712116910218,
            -0.18302254572522408,
            -0.470933351944195
          ],
          [
            0.42978847254083413,
            -0.24655418354236336,
            0.2501284649349992,
            -0.11403459903296712,
            -0.2824723622114054
          ],
          [
            -0.017204777814493862,
            -0.1411687967821877,
            -0.02294257386726292,
            -0.10736042110465169,
            -0.23615199869230757
          ],
          [
            -0.0061211367256614295,
            0.08896796036945845,
            0.03387875042306188,
            0.04597015867288886,
            -0.1147345147848962
          ],
          [
            -0.12537356945232342,
            -0.030614567521818098,
            0.26769676142757454,
            0.023569327609337536,
            0.1931893188524909
          ],
          [
            -0.019506070750719785,
            -0.2559579763655669,
            0.19398319932317648,
            0.348128768130406,
            0.004527840723772089
          ],
          [
            0.06562032865090531,
            -0.2656013931541668,
            0.05507594187608721,
            0.30542975512715786,
            0.0530676184282615
          ],
          [
            0.15301430026696455,
            -0.2712572240917005,
            0.2840201341483186,
            0.5454436579106767,
            0.03188268391246719
          ],
          [
            0.13817922785004655,
            -0.07927469724234544,
            -0.024373689277976084,
            0.5548988891288276,
            0.08844078277931938
          ],
          [
            0.1708509388840547,
            0.10502696627801085,
            0.13148187294005464,
            0.46749759879940306,
            0.016598392733593207
          ],
          [
            -0.0716867188135185,
            -0.10432770380773705,
            -0.1786612827016099,
            0.40088770783432526,
            0.017653502144747917
          ],
          [
            -0.04088621130061174,
            -0.12884711303866705,
            -0.2187106538459066,
            0.22763283424749728,
            -0.06638027299999
          ],
          [
            0.09510385223761118,
            -0.3396177814344778,
            -0.4249549771887971,
            -0.0980102540027286,
            0.1830298906947574
          ],
          [
            0.16305455705825125,
            -0.6926608024548994,
            -0.4313716873989629,
            -0.4515444852024339,
            0.5173032105976357
          ],
          [
            0.16811596461004658,
            -0.7607823526182541,
            -0.4177621212726873,
            -0.5472129148671232,
            0.5891594266301188
          ],
          [
            -0.11180869732691295,
            -0.37300037277359005,
            -0.28184917545999816,
            -0.3437798334905722,
            0.29731486397254936
          ],
          [
            0.11590002268588002,
            -0.1432970192807746,
            -0.16886373620553446,
            0.1172601062494844,
            0.24205511567955115
          ],
          [
            -0.18698170030292643,
            -0.6851100675353444,
            0.27120928211082235,
            1.126042419114878,
            0.2371378551234561
          ],
          [
            -0.2976605381428652,
            -0.6206412429373435,
            0.310961848505168,
            0.8457676129705722,
            0.219878593184881
          ],
          [
            -0.09752418934421517,
            -0.15829056350942947,
            -0.018180919829045402,
            0.20308226607716953,
            -0.05300246260408195
          ],
          [
            0.06192950183576148,
            -0.0010076523081167187,
            -0.026539258604065544,
            0.28197506385638244,
            0.08627198044185684
          ],
          [
            0.3933451281012845,
            0.6631770301819635,
            -0.41862750002378096,
            0.8908982660356344,
            -0.4573221514018994
          ],
          [
            0.21304467518658785,
            0.5623421959875816,
            -0.33296675254504293,
            0.5440329719446946,
            -0.45652710441925337
          ],
          [
            -0.22849341289174668,
            0.4160821758335974,
            0.2903034390028126,
            0.013602757718194941,
            0.06584588110584291
          ],
          [
            -0.5754853352264824,
            0.568338977398177,
            0.4477708945916554,
            0.014251043346340227,
            0.2728450781004734
          ],
          [
            -0.856744907203987,
            0.6883397874296929,
            0.5572373371104185,
            -0.3093468451709891,
            0.4394687575533638
          ],
          [
            -0.5833983593109655,
            0.44750842871489294,
            0.8385594169472601,
            -0.23628627489370646,
            0.32030170113865775
          ]
        ]
      },
      {
        "activation": 1,
        "biases": [
          0.6487903513963672,
          -3.0007091969060107,
          -2.4704574473775325,
          -1.640396791069832,
          -1.8612488892603212
        ],
        "cols": 5,
        "rows": 5,
        "weights": [
          [
            0.44672532826445316,
            -2.8757575070361097,
            -5.582509442978314,
            2.248518815506633,
            1.579418646317697
          ],
          [
            -4.478999070240304,
            -3.2635677406899046,
            4.650085430302948,
            -3.382978763120493,
            4.827467851024874
          ],
          [
            -5.861742246235072,
            1.1511664380535096,
            2.9216912410013576,
            3.854971408503625,
            -4.579384141329753
          ],
          [
            -3.2593252452733577,
            7.385048783785245,
            -3.0984252890329116,
            -3.432105725819576,
            0.38510975899570776
          ],
          [
            3.603120359773128,
            -0.012942910426365384,
            -0.4244925197860276,
            -5.072115620932088,
            -4.252022483818586
          ]
        ]
      }
    ]
  }
}
