{
  "labels": {
    "labels": [
      "5",
      "3",
      "1",
      "6",
      "2"
    ],
    "rows": 5
  },
  "mlp": {
    "layers": [
      {
        "activation": 1,
        "biases": [
          0.02523606452517615,
          -0.2688873837227577,
          0.13010606062028182,
          -0.06394111041928671,
          -0.06079807222262264
        ],
        "cols": 5,
        "rows": 210,
        "weights": [
          [
            0.02529677288790555,
            0.2585487975322149,
            0.05473239246270723,
            -0.14568711635770817,
            0.17825829755571992
          ],
          [
            0.1560155534206696,
            0.29916532751000086,
            0.04773096016078628,
            -0.1691761212953036,
            0.3296697871119401
          ],
          [
            0.014059780772750496,
            0.22660918720524875,
            -0.08096898362260843,
            -0.22372847382605338,
            0.281282239743428
          ],
          [
            0.24865237365538298,
            0.4450949826226003,
            -0.03751017128353183,
            -0.12355552862035898,
            0.4918040946072168
          ],
          [
            0.0979794070774669,
            0.14994240871152437,
            -0.016416087310047362,
            0.056832333114113814,
            0.2111061636277218
          ],
          [
            -0.0086031087226121,
            0.23413808020200685,
            -0.045788335704031076,
            0.08344758248430392,
            0.08529081662014212
          ],
          [
            -0.11151454614371675,
            -0.15488324251071417,
            -0.05395839367912171,
            -0.019490766897624707,
            0.05161026965770377
          ],
          [
            -0.01240352354816294,
            -0.06907428109089185,
            -0.0963248666385436,
            0.08260553202236776,
            0.22473566113981083
          ],
          [
            -0.2106113610691388,
            -0.3965692908835214,
            0.15948993966827169,
            -0.3089032407858351,
            0.3377930863449576
          ],
          [
            -0.3756425029934036,
            -0.3877849910884185,
            0.3668349711950172,
            -0.18968608629298947,
            0.15520059885145177
          ],
          [
            -0.5150777648928213,
            -0.12996271720987285,
            0.14520614498323658,
            -0.012395658255942061,
            0.11663798766465608
          ],
          [
            -0.19675504208353645,
            -0.26693939426765473,
            0.02880591603533445,
            -0.04757288932418148,
            -0.003220546613494665
          ],
          [
            -0.14527959782784206,
            0.2599926593499427,
            0.05511013277166319,
            0.1268415792941631,
            0.023964757101048385
          ],
          [
            -0.15464803184695675,
            0.14739338964370105,
            -0.09556021074813843,
            0.18740845560813651,
            0.04745630002012968
          ],
          [
            -0.17469317337864163,
            0.09610571360754104,
            0.033454404633595884,
            0.06470894801591823,
            -0.018486215994210912
          ],
          [
            -0.22397519087391193,
            0.20516215879985802,
            0.09768955415323015,
            0.24633543402418243,
            -0.13696635996147655
          ],
          [
            -0.15367976943295705,
            -0.0004296849901468923,
            -0.10885427936011953,
            0.19359918256099093,
            0.16312492155884661
          ],
          [
            -0.033167197406903784,
            -0.13088006795152274,
            0.012140132037321932,
            0.10049268770593095,
            0.03815519143500284
          ],
          [
            -0.09357016133013908,
            -0.011594605123067332,
            -0.2877695904640254,
            0.08730476694330717,
            0.2374707257210017
          ],
          [
            -0.08471032104552166,
            -0.041716116554151396,
            0.03353867415964472,
            0.1898660472549422,
            0.23914132470300034
          ],
          [
            0.18854190146934427,
            -0.12085521632270027,
            -0.07009654103493486,
            0.29900494034377795,
            0.21030610135322375
          ],
          [
            -0.003013963645797728,
            -0.11037602599046412,
            0.018413056849161603,
            0.27709099269978316,
            0.04324471278912565
          ],
          [
            -0.1542191928270418,
            -0.05938203762163201,
            0.0033412546523884272,
            0.016403589589086547,
            0.29802449792396035
          ],
          [
            -0.20287867584794006,
            -0.028567030487576344,
            -0.1045574463594299,
            0.07076449966462661,
            -0.05186077279175946
          ],
          [
            -0.19011359985675122,
            0.15849822653638965,
            -0.06835345123741518,
            0.10529508693513019,
            -0.06351702883688914
          ],
          [
            -0.07540634459467972,
            0.3529405530360581,
            -0.0029382259497360307,
            0.36826438953796087,
            -0.5697671700848214
          ],
          [
            0.1540134728943996,
            -0.023124602311163714,
            -0.056507510546337854,
            0.1254469737619147,
            -0.5688653790325069
          ],
          [
            0.37174037212246025,
            -0.30954436182095335,
            0.14648701874841846,
            -0.2176056390291345,
            -0.44953834974780504
          ],
          [
            0.45247428476558493,
            -0.35546475591644583,
            -0.10328786914907817,
            -0.07816967061498772,
            -0.30087243623794735
          ],
          [
            0.39982792223223296,
            -0.021826444265692767,
            -0.08942794717944437,
            -0.09740361529599013,
            0.007610426856609989
          ],
          [
            0.02115124974859881,
            0.08462732667714079,
            -0.0009075746800562876,
            0.11777696194359467,
            0.15749522318916315
          ],
          [
            0.13433198523795503,
            0.2510971117245813,
            -0.21936042122861407,
            -0.06964963328166558,
            0.08782211502863872
          ],
          [
            0.053208037753452994,
            0.19381549392572905,
            0.027275847355079222,
            -0.026746975339987104,
            0.1346136311677468
          ],
          [
            0.04178984380664047,
            0.2759776278900985,
            -0.051479188750709996,
            0.02325954122375138,
            0.12310668685139682
          ],
          [
            -0.1087924971679964,
            -0.031607950408307973,
            0.011621856913665322,
            0.022701303859652872,
            0.1717763945392219
          ],
          [
            0.03273240147534336,
            -0.09692478208086153,
            0.09388681994323171,
            0.09146033829278936,
            -0.07648315098510557
          ],
          [
            0.06146858220875387,
            0.02015937051534873,
            0.023912841209141025,
            0.028058471161688196,
            0.023012322552186847
          ],
          [
            0.030883312571330184,
            0.01881207568079038,
            0.09672083090817672,
            -0.09405269264519746,
            0.028739923161157317
          ],
          [
            -0.18047802407462038,
            -0.11630193237218855,
            -0.02743937609532881,
            -0.25538382535718535,
            0.17245904631265332
          ],
          [
            -0.34639524599035526,
            -0.2639803990319314,
            0.1983635040615706,
            -0.203407746395459,
            0.09030341861157477
          ],
          [
            -0.09491088254902005,
            -0.12975340212647168,
            0.17228313714671736,
            -0.11318112544820842,
            -0.0948930203862625
          ],
          [
            -0.07361449309174146,
            -0.15918840048646082,
            0.14170259628098875,
            -0.06663767923597153,
            -0.046397370428035226
          ],
          [
            0.05181933611973925,
            0.19978901920284528,
            -0.15630014107893697,
            0.23275708578855708,
            -0.1086827906459149
          ],
          [
            0.05559674574725569,
            0.17811396311087058,
            0.11312990147415494,
            0.11375467024679395,
            -0.2000811757630755
          ],
          [
            -0.0365723343031442,
            0.13603863552223613,
            0.03372597937798164,
            0.23755133371879328,
            0.06968559105988353
          ],
          [
            -0.13307812814674244,
            0.11098199826594743,
            0.03548392013761926,
            -0.016981677732470335,
            0.09251551808149255
          ],
          [
            0.002997282351698698,
            0.10173329717042301,
            -0.19789557829363058,
            0.20506398907761608,
            0.21079495014997202
          ],
          [
            -0.057106899717284346,
            -0.1494676466768985,
            -0.06284624674889255,
            0.20423056290600114,
            0.1711532944682235
          ],
          [
            0.15458982037307475,
            -0.019876119414018033,
            0.06774731518050249,
            0.28923302643882587,
            0.1830447842954533
          ],
          [
            -0.06411825237952183,
            0.06605602185211279,
            -0.22288999550909228,
            0.03120285543843275,
            0.13654048392993556
          ],
          [
            0.12551506326416056,
            0.06756104978327235,
            -0.14659688373060564,
            0.14128756376490328,
            0.2114558833159059
          ],
          [
            0.13562994508934123,
            -0.022979648578449995,
            -0.17197648570414634,
            0.2362216284160754,
            0.18462327740077666
          ],
          [
            0.14177839800584385,
            0.01774429573030909,
            0.15022281738825777,
            0.13343214167834813,
            0.2181799720681726
          ],
          [
            0.11963353990213614,
            -0.18176458627581124,
            0.05702166290115357,
            0.15738390285599782,
            0.012556299791806086
          ],
          [
            -0.014435044629880588,
            0.13128145723966347,
            -0.05149996706327473,
            -0.024179768250163693,
            -0.1207208492219486
          ],
          [
            -0.10384038646143619,
            0.40736299085291205,
            0.15753281249742734,
            0.3874314267114746,
            -0.4382942906583466
          ],
          [
            -0.020659611192724858,
            -0.0089438710233307,
            0.017868360604582207,
            0.17363681703160583,
            -0.2077763619107829
          ],
          [
            0.15874840789493863,
            -0.19398266410997458,
            0.17238680250744617,
            0.02696496213018657,
            -0.2492056554573771
          ],
          [
            0.38980434088346094,
            -0.3234324757045658,
            -0.08200453565932773,
            0.08384217459594061,
            -0.1695927273036439
          ],
          [
            0.08299807493979316,
            -0.12050906193633672,
            -0.24760459159179535,
            0.2599937853293823,
            -0.07089461541292809
          ],
          [
            -0.1540830074227675,
            -0.2748248490533378,
            -0.27529159742137554,
            0.11248526698280857,
            0.6987983915916733
          ],
          [
            -0.158736376577946,
            -0.010913939680924278,
            -0.23531405183272386,
            0.37863238223682305,
            0.2519919974740966
          ],
          [
            -0.29875615540351586,
            0.26003972431366773,
            0.1931564325657,
            0.12680072042344856,
            -0.05254744850729546
          ],
          [
            -0.4909781818046023,
            0.5663349422241473,
            0.06854117746696016,
            -0.30939244116132725,
            -0.08884147887673169
          ],
          [
            0.015523425729552166,
            -0.061098218657046933,
            0.32678612551613606,
            -0.37090651845217043,
            -0.10391846041745754
          ],
          [
            0.35007100439793803,
            -0.7712855826719226,
            0.13120647749482342,
            0.4099097050796499,
            -0.5988064580714381
          ],
          [
            -0.17473294115864843,
            -0.17019909450717444,
            -0.17244614508449124,
            -0.06365147227389467,
            0.2796551481865601
          ],
          [
            0.10968982972776481,
            0.5751330777850586,
            -0.17637408214092512,
            0.1958934815850532,
            -0.023563336603077967
          ],
          [
            -0.08450215284607403,
            0.15287081286288592,
            -0.23032282033111978,
            -0.37534608429309907,
            0.8076964159836392
          ],
          [
            -0.07082724814123383,
            0.3399875128584435,
            0.1238641000892642,
            0.09210381949282881,
            0.08281341748910646
          ],
          [
            -0.1282709307077739,
            0.6105774792962168,
            -0.0359117929294668,
            0.16951077234665593,
            -0.015765967604967897
          ],
          [
            -0.19022419678827515,
            0.670581512755174,
            -0.06977886543811823,
            0.20137014228237368,
            0.24538264326886228
          ],
          [
            0.2664275811401466,
            0.7301968594162852,
            -0.3426883071639677,
            -0.0074271103547524945,
            0.3926848279482502
          ],
          [
            0.1986289309301279,
            0.23570486964309306,
            -0.06265734181791922,
            -0.6137234868893119,
            0.02226986127151612
          ],
          [
            -0.08017565172878965,
            -0.018804767909535364,
            0.08982816128151457,
            -0.5034495441867342,
            -0.3388244120792843
          ],
          [
            0.07774729379687986,
            0.19151420971039126,
            0.18596763687418638,
            -0.37266697921128966,
            0.03814015509777344
          ],
          [
            0.05238549011940896,
            -0.200173207606353,
            0.051524628155221165,
            -0.7051752294105974,
            -0.025041060640240496
          ],
          [
            0.2943779624240954,
            0.226367950334107,
            0.056462104741114454,
            -0.4831621276877217,
            -0.5594900421486652
          ],
          [
            -0.15328862731255427,
            0.22960866939645508,
            0.08299232858930522,
            -0.7404054597504713,
            0.1725944910344808
          ],
          [
            -0.05693879821995857,
            0.23358701939396787,
            0.2256259592852154,
            -0.689101067087077,
            -0.04097451761945756
          ],
          [
            0.11711983778434935,
            0.5183377864336668,
            -0.042984922778550115,
            -0.18923361056217966,
            -0.2966011264842937
          ],
          [
            -0.1289618362992988,
            0.4795848942313357,
            0.04533755056478675,
            -0.3778177701702384,
            0.08908404686803241
          ],
          [
            -0.04832985903174738,
            0.944844382268407,
            -0.07624519338195096,
            -0.01868442092369282,
            -0.24612233709256134
          ],
          [
            -0.4378619163193026,
            0.974166045171088,
            0.1402820820064486,
            0.14676295915723617,
            -0.6559920757207219
          ],
          [
            -0.21609165613009965,
            -0.29467828324084133,
            0.20075229380040005,
            -0.5697828090680493,
            -0.006088485642829223
          ],
          [
            -0.09795583387440765,
            -0.3998250695198152,
            0.24929480490782951,
            -0.831618170101463,
            0.11332399404991189
          ],
          [
            -0.08968580369551199,
            -0.018544112704724596,
            0.07210668240486384,
            -0.06865036898729177,
            0.01379075598630792
          ],
          [
            -0.2760175495099472,
            0.04730570580885056,
            0.07806165225313763,
            0.7236507762863731,
            -0.39875218673886864
          ],
          [
            -0.4202952618356365,
            0.04464415933059055,
            0.2686218776572024,
            0.02568889418435011,
            -0.1490044002284062
          ],
          [
            -0.1598371318816654,
            -0.15682645309955387,
            0.1635519525633466,
            -0.14892191105269126,
            0.11966269289633782
          ],
          [
            0.04762639387791581,
            -0.052950793932555834,
            -0.14474077005194935,
            -0.0837588829235612,
            0.4579273566649718
          ],
          [
            0.3584776468038195,
            0.038657103141664394,
            -0.14029799212681154,
            0.033128907311348946,
            0.17185891134882633
          ],
          [
            0.26310078164643835,
            -0.24082169267332798,
            0.14327586754860855,
            -0.006306397556849784,
            -0.33536899643663487
          ],
          [
            -0.03726707947220246,
            0.3005010516644833,
            0.1164619558349147,
            -0.2856854995879779,
            -0.19080384896912161
          ],
          [
            0.277191275490878,
            0.1809340098945282,
            0.07493247429094439,
            -0.2838649985044682,
            -0.09276821972810281
          ],
          [
            0.14279758643615267,
            -0.4149865893829404,
            0.24069708858658811,
            0.009588026436640537,
            -0.17883287908551795
          ],
          [
            -0.1449442403812421,
            -0.28283522150716894,
            -0.04938772690943408,
            -0.019266127933954075,
            0.4223082432914696
          ],
          [
            -0.2647136719017321,
            -0.14265074707671047,
            0.13418082498570813,
            -0.08544006178664121,
            0.1645248895902831
          ],
          [
            0.10726914859268465,
            -0.096900226798601,
            0.024033626794828712,
            -0.35754758345357,
            0.1242441163039265
          ],
          [
            0.07141939668103069,
            -0.16865035240199022,
            0.03838759220318716,
            0.2667017252247904,
            -0.3921146203824344
          ],
          [
            -0.31428002213038203,
            0.5589528801881445,
            0.07702817181435892,
            0.38617674955000547,
            -0.25836489697234144
          ],
          [
            0.1155446030167037,
            0.17299969179276553,
            -0.009236729509665753,
            -0.11052862791697567,
            -0.21941510942173514
          ],
          [
            0.3266407810789543,
            0.5777638990252632,
            -0.38734719111517013,
            -0.023691366583705086,
            0.6449300449044535
          ],
          [
            0.4627950198938106,
            0.06882622596855983,
            -0.16576126121836898,
            -0.38255213481292594,
            0.37098142702373826
          ],
          [
            0.2139096559163309,
            -0.8017917620840715,
            0.03041459653463027,
            -0.0043672932903268576,
            -0.11729891293451046
          ],
          [
            0.20058277862558133,
            -0.47504381012964725,
            0.08981752757604933,
            -0.048764928334820414,
            -0.34893150294652353
          ],
          [
            -0.13208164178910023,
            -0.025515584623958837,
            0.1427916382559704,
            -0.0638494625906928,
            -0.24836110925104335
          ],
          [
            -0.3674917533884398,
            0.20200019145243847,
            -0.08513550012232074,
            -0.17414804510765364,
            0.14395945324258833
          ],
          [
            0.001671299022931931,
            0.013115448125207707,
            0.16463000949865916,
            -0.27499533630714895,
            0.042093174675707654
          ],
          [
            0.18266582633889697,
            -0.12698181796604652,
            -0.07451881447650419,
            -0.2956659759205872,
            0.1906845746986966
          ],
          [
            0.08561411302672357,
            0.08913814309252142,
            -0.1344642443507952,
            0.00756400908005091,
            -0.20277141398898527
          ],
          [
            -0.24522042348827838,
            -0.23260440107990954,
            0.1740396416770477,
            0.06850232092460146,
            -0.2484608142404738
          ],
          [
            -0.2585334880148845,
            -0.02565885104327589,
            0.14413673795302337,
            0.3788196648204607,
            -0.08109483704663357
          ],
          [
            -0.2775242352114395,
            0.2932272972620167,
            -0.22210414260641953,
            1.0510547785501627,
            -0.047725157361484055
          ],
          [
            -0.09437356697716262,
            -0.871753137589416,
            0.15344565357982615,
            -0.2555720171174427,
            0.14964702658178797
          ],
          [
            0.21673545764192093,
            -0.9378248225762177,
            0.06375045590165641,
            -0.7789002030932457,
            0.3527101928905582
          ],
          [
            0.36831330511823684,
            -0.02656337624003912,
            -0.08879961295569941,
            -0.16830557177931935,
            -0.011255736546591164
          ],
          [
            -0.017284791379574903,
            0.2729396324015559,
            -0.127933719255168,
            0.6881541925232385,
            -0.018333108303852295
          ],
          [
            -0.5561783606540767,
            0.24315681305164058,
            0.3095056220797299,
            0.17460919904683733,
            -0.3496647896726893
          ],
          [
            -0.03367787489758251,
            -0.03106938084137223,
            0.08813239112038342,
            -0.4272183795899651,
            0.29759374152340423
          ],
          [
            0.14635156417688278,
            0.23236081447108642,
            0.0042348274070319126,
            -0.06525051713609285,
            0.06766335527238054
          ],
          [
            0.024385579131735148,
            0.1557379517622501,
            0.07561171548176823,
            -0.17562740345498265,
            -0.07773912019895282
          ],
          [
            -0.027064285826993394,
            0.10560385167952449,
            -0.034000704381216766,
            -0.2756231361188208,
            0.09992103772162092
          ],
          [
            0.06485205059947263,
            0.240376421566527,
            0.09400348787425011,
            -0.07819551951845156,
            0.2159075290121337
          ],
          [
            0.08550930480864992,
            0.12768810162842173,
            0.015666555034823525,
            -0.002205343539985597,
            0.1593750472954321
          ],
          [
            0.08488335855605497,
            0.0001047868885023388,
            -0.10106768351734895,
            0.046812471442359595,
            -0.11134950540756605
          ],
          [
            0.04326043835298635,
            0.14406124208293256,
            0.16438716292028896,
            0.08832369014089683,
            0.12021331091611523
          ],
          [
            -0.07683683947993085,
            -0.011661465474872698,
            0.1573231743473948,
            0.07788765400859399,
            0.08001997883643412
          ],
          [
            -0.26599451735345475,
            -0.23068341843897056,
            0.02646638651797341,
            -0.1446374158851315,
            0.26249645145156186
          ],
          [
            -0.2264676834665654,
            -0.19637072848233272,
            0.24506019648690322,
            0.03398449786351872,
            0.2635457478259929
          ],
          [
            -0.07241902585296228,
            -0.25901930517503,
            -0.025584185950116325,
            -0.023447329705064305,
            0.22159220916715341
          ],
          [
            -0.31001935057652175,
            -4.749221956355778e-05,
            0.19112020843257616,
            0.05222054665181392,
            0.01264421543159438
          ],
          [
            -0.09185958638103174,
            0.15485549985579566,
            0.048477557159280836,
            0.14402730182622453,
            -0.01789662198931627
          ],
          [
            -0.007504342637088503,
            0.10269672011564264,
            -0.021521723329967473,
            0.16854900771339482,
            -0.025090663047004896
          ],
          [
            -0.08037366917344434,
            -0.0710850106769012,
            0.033742156180755496,
            0.2118335892819394,
            -0.17271204154402092
          ],
          [
            -0.18032125951174863,
            0.0038367735628682194,
            0.06500363638824827,
            0.19401908206041374,
            0.04679408056623365
          ],
          [
            0.10842754959209676,
            -0.12093896986667867,
            -0.15441220816868595,
            0.17788046152579579,
            -0.14843772175830913
          ],
          [
            0.1012906199927295,
            0.05672911282552751,
            -0.07609309560437863,
            0.035579631248363476,
            0.1274939000183711
          ],
          [
            -0.018706213598331297,
            -0.11632043782337685,
            -0.08543242165044358,
            -0.004532062793465997,
            0.13298089025616697
          ],
          [
            -0.08512489457019473,
            0.11821348407665488,
            -0.03410188242869632,
            -0.12818936142816614,
            -0.041266689558924895
          ],
          [
            -0.04702559406675931,
            0.11844424067675247,
            0.1336069551556617,
            -0.053523839366488433,
            -0.06506235820187627
          ],
          [
            -0.0693347386435251,
            0.025064701424782787,
            0.07251062253316799,
            0.09512980920713057,
            -0.09782170461620172
          ],
          [
            0.10228589681027965,
            0.06740250665521144,
            0.07736476275735221,
            -0.03698496123768572,
            0.10401799844094249
          ],
          [
            -0.06149641084133378,
            0.09046969950564676,
            0.13412343581559086,
            -0.11428280796860495,
            -0.12542613184550286
          ],
          [
            0.0016259087900317654,
            -0.19843634735917787,
            -0.025278309406612447,
            -0.1785336661739701,
            -0.06684626265642024
          ],
          [
            -0.03382183709228962,
            -0.17470640607752255,
            -0.006043236003527711,
            0.02312120223858656,
            -0.02147703818205673
          ],
          [
            0.2470574926444977,
            -0.028524548049718986,
            0.1797097766425652,
            0.03115471304475002,
            -0.033104264214147604
          ],
          [
            0.06454673545057747,
            -0.09182640255028315,
            -0.01064592327329134,
            -0.22670852808426303,
            -0.18448011428132774
          ],
          [
            0.20361187320886687,
            -0.17679379688186228,
            -0.0020230775575841033,
            -0.21806269264584596,
            0.05516241962874035
          ],
          [
            0.12223617726930545,
            -0.10928118035489988,
            0.0365767740019685,
            -0.14657872668446986,
            0.039458907057387194
          ],
          [
            0.07613432224990446,
            0.21855423522054404,
            -0.08910092211863488,
            -0.14413396012467075,
            0.0002048120267948428
          ],
          [
            0.21209032550532447,
            0.3989953719401212,
            0.04506219432603702,
            -0.197840363650896,
            0.17108396075777962
          ],
          [
            0.221832166445168,
            0.25844443489115065,
            -0.007864930258914554,
            -0.28681074594195216,
            0.3584103255834736
          ],
          [
            0.1440366721305398,
            0.12655308057543954,
            -0.10735563422604784,
            -0.09388585005973403,
            0.25987720735137193
          ],
          [
            0.07784593953034867,
            0.08263211784868532,
            -0.009660608233325058,
            -0.16909835655227654,
            0.08502584727767148
          ],
          [
            0.12474157407921956,
            0.12121799997243256,
            -0.12674006106659452,
            -0.12196509071397332,
            -0.02992679446050344
          ],
          [
            -0.21230867565992415,
            0.08058596934648385,
            -0.07619947458919855,
            -0.21251755796094446,
            -0.05247743695158617
          ],
          [
            0.0231072208528792,
            -0.017665580067768735,
            -0.006813220858425752,
            0.08064542134063593,
            0.24174343897974596
          ],
          [
            -0.2900874663183197,
            -0.26152585332958117,
            0.21004693822174986,
            -0.10395653147623622,
            0.14029548016342144
          ],
          [
            -0.6017451778732262,
            -0.3367583194497437,
            0.3480244618404504,
            -0.35417788133081907,
            0.2339984891286688
          ],
          [
            -0.38649835466833127,
            -0.1953830925279939,
            0.13290922574409628,
            -0.004016159455569424,
            0.3330146525427843
          ],
          [
            -0.43004045205228436,
            -0.014966629136368632,
            0.13096502466797563,
            0.021684341774116163,
            -0.015070096346140151
          ],
          [
            -0.12508122948797878,
            -0.0027622568164299955,
            -0.09430604425055947,
            0.16885460860000798,
            0.050757250603983825
          ],
          [
            -0.12169316951017742,
            0.27627892873664667,
            0.11919887455732794,
            0.1248284242241748,
            -0.19790646908043114
          ],
          [
            -0.06240679990356157,
            0.17276729167487387,
            -0.13085202871815133,
            0.15887981744161206,
            0.07166537211909858
          ],
          [
            -0.1609686700423551,
            0.0341418984384295,
            -0.05931693323382259,
            0.21599397995658165,
            -0.04766271627026821
          ],
          [
            0.13193573501768513,
            -0.15390464471860904,
            -0.07236257151050192,
            0.36091255786619836,
            0.10249188427987371
          ],
          [
            -0.05728582879451536,
            -0.014659895592440308,
            -0.20156377782358023,
            0.4867491145832319,
            0.2010642700334713
          ],
          [
            -0.051451473254473544,
            -0.2961388491097556,
            -0.12863174523928345,
            0.23004575456924284,
            0.23828140918826354
          ],
          [
            0.15621379461453133,
            -0.17314032056191947,
            -0.3198501870445452,
            0.4600571961893381,
            0.4349197304511424
          ],
          [
            0.018487225924793505,
            -0.1676591299984444,
            -0.31342708348613046,
            0.18924346168302725,
            0.4580519261248513
          ],
          [
            0.21493903295879463,
            -0.23693330895301123,
            -0.27635500871273916,
            0.27962791517077157,
            0.3992091087707106
          ],
          [
            -0.06898027650189219,
            -0.11945011625688214,
            -0.20676363066202563,
            0.11698171680397744,
            0.28292863630393217
          ],
          [
            -0.07676066855225253,
            -0.18984469690911265,
            -0.03708637661848202,
            0.1529462340670213,
            0.11453910821490274
          ],
          [
            -0.13124583784166793,
            -0.03811089399744454,
            -0.04505061853811175,
            0.04253043859435105,
            -0.2504950852366067
          ],
          [
            0.02940421861170605,
            0.21511515518559488,
            0.08561448009323613,
            0.2051390555283628,
            -0.5586569993960245
          ],
          [
            0.27200267307402143,
            -0.02199834491890062,
            -0.0014278803254938928,
            -0.12100728269021231,
            -0.5466158217818716
          ],
          [
            0.45504972751778777,
            -0.6252009011234727,
            0.17966893009033433,
            -0.22002506360131263,
            -0.619771822143755
          ],
          [
            0.5466755644023256,
            -0.6465028480009871,
            -0.10683933785459884,
            -0.14681087717808478,
            -0.28597778050589545
          ],
          [
            0.5313340837541646,
            -0.02775989157608837,
            -0.09228847732661824,
            0.09452024583511633,
            -0.00841546779873302
          ],
          [
            0.34677655828712506,
            0.8378542834578779,
            -0.25297709284129427,
            -0.10130821024759731,
            0.48843624984571
          ],
          [
            0.1672771788335482,
            0.7220837372799158,
            -0.31475568651942376,
            -0.4499115988363224,
            0.44331557686980166
          ],
          [
            0.07829553371547822,
            0.698297372233411,
            -0.16508795885784724,
            -0.1065351835314564,
            0.5328081931864117
          ],
          [
            0.1372991842399258,
            0.5744955598323429,
            -0.27186981212984224,
            -0.03204529143077081,
            0.8026048254981109
          ],
          [
            0.23555677191399998,
            0.21336957066095594,
            -0.11169219995885658,
            -0.18472255546620422,
            0.3882317077445808
          ],
          [
            0.10933344659751866,
            0.18796459610686034,
            -0.006191912081509351,
            -0.09446273131126744,
            0.21379417202489004
          ],
          [
            -0.21233376703130688,
            -0.13463191628681234,
            -0.08735581641488621,
            -0.037106889268936606,
            0.2750997208667016
          ],
          [
            -0.3839223965940505,
            -0.06103485212226006,
            0.13783780182798355,
            0.021027239050419033,
            0.28723242719187836
          ],
          [
            -0.5996265263373796,
            -0.580052873174946,
            0.1460266613527661,
            -0.21560176303240264,
            0.42270346568546385
          ],
          [
            -1.0691775422284564,
            -0.7886536744915312,
            0.5882761307018703,
            -0.36306111979562233,
            0.5471474287366421
          ],
          [
            -0.8920682002774944,
            -0.4523497248530704,
            0.3185072361849389,
            -0.17872062352443766,
            0.18390403080821344
          ],
          [
            -0.5646574349406157,
            0.040498232825828456,
            0.3418083642961484,
            0.19593200492920354,
            0.038285792646632615
          ],
          [
            -0.28118882600216666,
            0.18104617487123434,
            0.09643915287706994,
            0.49112961128733196,
            -0.23879802764693767
          ],
          [
            -0.23395438661920695,
            0.29959930984786465,
            -0.020035551437691503,
            0.43616857911525964,
            -0.33214651503675857
          ],
          [
            -0.17558284116383305,
            0.34213680180190353,
            0.012493593316028537,
            0.41784662807100714,
            0.027721183607954246
          ],
          [
            -0.23164043440859838,
            0.16011696356888003,
            -0.026408161121838573,
            0.2826619409357137,
            0.10593104160398746
          ],
          [
            -0.03845042706348606,
            -0.08663067613594236,
            -0.1925343672830195,
            0.389924432771298,
            0.26947540218991045
          ],
          [
            -0.0807378164457562,
            -0.11233796234155187,
            -0.23344341654487366,
            0.4970038810686975,
            0.1514095237435394
          ],
          [
            0.0975218499697883,
            0.051902628256901284,
            -0.34859159932975775,
            0.3096517434520877,
            0.390939932445951
          ],
          [
            -0.03260913907959764,
            -0.22467915405024452,
            -0.074304295539916,
            0.33607628635898146,
            0.4629072737564065
          ],
          [
            0.007102896125175313,
            -0.2875069359546754,
            -0.27145053512460887,
            0.2922075049930261,
            0.4349617914735375
          ],
          [
            -0.08135347688696004,
            -0.2804743191453928,
            -0.2633745258348214,
            0.37375986380521553,
            0.39776334507971767
          ],
          [
            -0.05970700731710032,
            -0.015359268510745514,
            -0.08093596668752782,
            0.13526804618153201,
            0.07944359625816663
          ],
          [
            -0.11328994935451395,
            -0.24718077294815122,
            0.1415300828788644,
            0.08685915097636179,
            0.17437588154302106
          ],
          [
            -0.06953089593945096,
            0.0016384733228927352,
            -0.0436693887991465,
            0.23300251961042573,
            -0.24831637068530088
          ],
          [
            -0.2084641983640186,
            0.3543887038883911,
            0.01324180904629532,
            0.5391189765411741,
            -0.781778448541258
          ],
          [
            0.23039673171941022,
            -0.008546877379285762,
            0.18953968752188793,
            0.2583115055335232,
            -0.8727038560475232
          ],
          [
            0.8463026399232383,
            -0.5369539848796081,
            0.1539684567321942,
            -0.2994906278936205,
            -0.9230691350332536
          ],
          [
            0.8749476517240171,
            -0.741797689146671,
            0.03684650002441704,
            0.01247570705993045,
            -0.6566082432194397
          ],
          [
            0.8604759731090841,
            0.061258442838264385,
            -0.353380262837825,
            0.11158381287085722,
            0.25159737367274504
          ]
        ]
      },
      {
        "activation": 1,
        "biases": [
          0.4014666533081229,
          -3.161712067046255,
          0.2830671807309571,
          -3.5682368062247973,
          -1.7987363313165312
        ],
        "cols": 5,
        "rows": 5,
        "weights": [
          [
            3.719677030137004,
            1.4382397481019602,
            -6.231026275713274,
            1.3198673860126438,
            -2.3137531011611814
          ],
          [
            -3.2555380077114906,
            -3.625363136790951,
            -3.3614516270993473,
            5.7399890985607005,
            3.9986021542651353
          ],
          [
            0.5149958828593153,
            -4.234375873555589,
            1.398534149892987,
            -3.446609119763025,
            -1.1676762308083448
          ],
          [
            -3.2172170445267296,
            4.447423577722881,
            -2.654780804543601,
            -4.541741929541472,
            3.6382045774336436
          ],
          [
            -5.950171686876808,
            2.068382815742218,
            2.9911041512489756,
            2.161712345500154,
            -4.677605027898106
          ]
        ]
      }
    ]
  }
}
