{
  "labels": {
    "labels": [
      "3",
      "1",
      "5",
      "6",
      "2"
    ],
    "rows": 5
  },
  "mlp": {
    "layers": [
      {
        "activation": 1,
        "biases": [
          -0.2915774509726863,
          -0.11415239481963338,
          -0.0606669044466628,
          -0.08267790768822238,
          0.5036737203888195
        ],
        "cols": 5,
        "rows": 210,
        "weights": [
          [
            -0.5596621196890349,
            0.3220905461417046,
            0.0341685448675132,
            -0.07945090960498664,
            0.3053594401361776
          ],
          [
            -0.43136045802822187,
            0.5172911769823872,
            -0.06605917622361018,
            -0.04489988029333999,
            0.441423120312655
          ],
          [
            -0.1823906674896606,
            -0.00867843638983911,
            -0.02688383279904465,
            -0.05737298440788766,
            0.09464166113291748
          ],
          [
            0.10067272232882252,
            0.16965994540423107,
            0.10361543544807662,
            -0.05266526791347819,
            0.15346622026374343
          ],
          [
            0.03070933840935266,
            -0.014003510052086223,
            0.05812395562762445,
            0.11355150535789542,
            0.009816227578709556
          ],
          [
            -0.003141983585336424,
            0.16532951820102415,
            -0.03936799738597521,
            0.14711730044985202,
            0.0027446522430567603
          ],
          [
            -0.041269358691155285,
            -0.1379208476507833,
            -0.08921640041458122,
            0.04029210991232405,
            -0.00830577848704119
          ],
          [
            0.1578249437378577,
            0.033940054398299994,
            -0.18760189477952938,
            0.16417483210152792,
            0.1499495051755036
          ],
          [
            0.18783325494431183,
            -0.1549860149589719,
            -0.05500198968977085,
            -0.1542703360891928,
            0.20348836614982466
          ],
          [
            0.2554231152610437,
            -0.05866062025316712,
            0.017501269976647745,
            0.01101076222096481,
            0.01316583453479857
          ],
          [
            0.30583180645645813,
            0.05942667077980463,
            -0.3609448628946128,
            0.09787259987787107,
            0.21033811808641453
          ],
          [
            0.7968042863925987,
            -0.2938632390036854,
            -0.6465821860076156,
            -0.08024857279928806,
            0.4072744580379121
          ],
          [
            0.5520420083811218,
            0.03076376041958141,
            -0.38171000029313434,
            -0.0898011092224408,
            0.4458711165218089
          ],
          [
            0.1767183527177886,
            -0.07900688662372726,
            -0.23037765344599853,
            -0.03711948655309872,
            0.2429173179892737
          ],
          [
            -0.013190663956942732,
            -0.04265094658161574,
            0.019293983418044485,
            -0.06543857293916701,
            -0.01640991621520765
          ],
          [
            -0.1076124846454498,
            0.10144194576831628,
            0.13309600117503428,
            0.06986855919226051,
            -0.2197653353748836
          ],
          [
            -0.03646179615844102,
            -0.0452895280191496,
            -0.03916039290961269,
            -0.0365793530509459,
            -0.032618191731923714
          ],
          [
            0.13552363452151156,
            -0.12514788486760456,
            0.08051445028459454,
            -0.16559063837252042,
            -0.2404575448422739
          ],
          [
            0.12826572534010444,
            0.005032432803172372,
            -0.2568943069634978,
            -0.1633655565094995,
            -0.031724546429519704
          ],
          [
            0.12654544262180392,
            0.004515033817291427,
            0.05006588928803367,
            -0.01769517753012583,
            -0.0076732549808217814
          ],
          [
            0.265345839113697,
            -0.017717482044311523,
            -0.010069361594027448,
            0.135715540669262,
            -0.040479776984516685
          ],
          [
            -0.014988335410012942,
            0.06629714679608734,
            0.08342318157208789,
            0.26966089497859963,
            -0.25064782529758817
          ],
          [
            -0.18831324314101372,
            0.21317437951452037,
            0.03149841357766848,
            0.24199084651981595,
            -0.06256014068209712
          ],
          [
            -0.24878491845637757,
            0.273115434952245,
            -0.10984882419309079,
            0.42011845208660303,
            -0.40811083139512605
          ],
          [
            -0.2032486925132834,
            0.21773136701719298,
            -0.08898241606361114,
            0.18559901672121204,
            -0.08439755952885776
          ],
          [
            -0.09060671030049172,
            0.10300950707293716,
            -0.011264864280850426,
            0.12709894600241683,
            -0.14717028950241504
          ],
          [
            -0.15565437304213092,
            -0.11806761572334383,
            0.0008038895728355465,
            0.0869357698512988,
            -0.06133342797038531
          ],
          [
            -0.2206570584459981,
            -0.5474773190415763,
            0.6227086911884787,
            -0.12759750562104782,
            -0.26571874635902143
          ],
          [
            -0.21665950552258462,
            -0.6034799722328427,
            0.4961814677548697,
            -0.1308163021880262,
            -0.34352458527262175
          ],
          [
            -0.21254299321975903,
            -0.15660689336607905,
            0.1916269721780312,
            -0.2208307894862979,
            0.07331476557914557
          ],
          [
            -0.3516363809282204,
            0.17069049253634036,
            0.04265274318360185,
            0.02881135833436839,
            0.2062674555513201
          ],
          [
            -0.21754930422594662,
            0.444991890274097,
            -0.26319141900418946,
            -0.09509986765255411,
            0.14705829951386615
          ],
          [
            -0.052974344624144847,
            0.058937517007153856,
            0.08911245178006653,
            0.019133653228535823,
            0.005238675224535443
          ],
          [
            -0.05176951890543995,
            0.13808256375044403,
            0.04879074053512036,
            0.028747984388323745,
            -0.08400880992738739
          ],
          [
            -0.1498009839430211,
            -0.08486604500792091,
            0.0623015239809198,
            0.022576122236694217,
            0.0643641741912369
          ],
          [
            0.037085383177290904,
            -0.10582845867962226,
            0.09806198633711478,
            0.10495458128039768,
            -0.10621956886651177
          ],
          [
            0.10016564929462318,
            0.030153205328909218,
            0.0036934082996162216,
            0.056792237558500734,
            0.006287027796519007
          ],
          [
            0.11632278704159665,
            0.060272464275694194,
            0.04621767280606117,
            -0.05400151966018536,
            0.01767587118269389
          ],
          [
            0.06652401927704928,
            0.017585485702355394,
            -0.16942697997679018,
            -0.1682912070434291,
            0.14566573174444375
          ],
          [
            0.0599370260911122,
            -0.07011009478074423,
            -0.037631440325301344,
            -0.08652545468156718,
            0.06598011641129323
          ],
          [
            0.3967576299608623,
            -0.048340052931687714,
            -0.14027357679695704,
            -0.06966862651662702,
            0.02202475026241999
          ],
          [
            0.49454472680663747,
            -0.2204506523854032,
            -0.255040807296679,
            -0.11611813839619284,
            0.251057874668077
          ],
          [
            0.43589948918485844,
            0.024761521645602018,
            -0.4037723966407046,
            0.07578579741709657,
            0.17723341567535458
          ],
          [
            0.24463047260973128,
            0.029965426014438665,
            0.02385427343047713,
            -0.023518291226682576,
            -0.053875727955315
          ],
          [
            0.030410734269978985,
            0.07001528859908725,
            0.0170329637912279,
            0.1839600545866517,
            0.08541886824664592
          ],
          [
            -0.09198571842145088,
            0.07166855947031073,
            0.05812527266199138,
            -0.10775181229843322,
            0.04126601818138244
          ],
          [
            0.04484725495632087,
            0.09805097407937283,
            -0.14213069620168112,
            0.0750477178103274,
            0.06572726358919724
          ],
          [
            0.033531487373489266,
            -0.11325385264097446,
            -0.010215474194665487,
            0.040781317757635764,
            -0.042973818137403565
          ],
          [
            0.2775123939320099,
            0.03071831557572727,
            0.09379104513391555,
            0.1284443658730564,
            -0.00976447128048705
          ],
          [
            0.049517134207993765,
            0.12902180526221202,
            -0.21361556863431758,
            -0.10719856034566544,
            -0.015286869090209166
          ],
          [
            0.14748870737391845,
            0.14336507958794775,
            -0.10425623714726627,
            0.01640617177480661,
            0.07433108567924976
          ],
          [
            0.11782543760364846,
            0.07489771552225644,
            -0.12487320832629639,
            0.1919861918053105,
            0.032646885865903204
          ],
          [
            0.1404981523583839,
            0.1659026313773853,
            0.165438867074893,
            0.2331939597721979,
            0.03396570434049253
          ],
          [
            0.12758757077643204,
            -0.038941311715751985,
            0.047112214782805244,
            0.33041585043001465,
            -0.15761345966358234
          ],
          [
            0.02229913959159192,
            0.09912625833884071,
            -0.06752398361068486,
            -0.037503645269913025,
            -0.09702544065784192
          ],
          [
            -0.046358351150476144,
            0.14893223081211548,
            0.15632646248239246,
            0.1363224609121525,
            -0.14040845479025604
          ],
          [
            -0.15087344630683935,
            -0.1372510672471964,
            0.03508548493901479,
            0.08122378684606511,
            0.14226170954688724
          ],
          [
            -0.24014863838949194,
            -0.3709259795066478,
            0.47770316266356966,
            0.04556620164656744,
            -0.06722749333047655
          ],
          [
            -0.04626009441877275,
            -0.4581579234688937,
            0.29815423999955026,
            0.008309028240484052,
            -0.1735267540841351
          ],
          [
            -0.2864725408887261,
            -0.17926239721179665,
            -0.050952235564926486,
            0.0886104627594015,
            -0.04866188235708098
          ],
          [
            1.3336238672752934,
            -0.16552003111818483,
            -0.3709806201785308,
            0.3188780760322853,
            -1.0777616750055135
          ],
          [
            0.15215308516309012,
            -0.12087501899224863,
            0.2515945275948985,
            0.0010084307740678912,
            -0.14065576566120483
          ],
          [
            0.9727693052533937,
            -0.9893760096908403,
            0.6384038586009502,
            0.043292153419226445,
            -1.3898952163492233
          ],
          [
            -0.6715286633627517,
            -0.030307043654695286,
            0.04436312875364014,
            -0.5595438622170831,
            1.084112921878273
          ],
          [
            0.2959346487155063,
            -0.433909136189154,
            0.41802816535984044,
            -0.4226691152302584,
            0.2246908425499551
          ],
          [
            0.20312583705201764,
            -0.14867848036395087,
            -0.23750148397793436,
            -0.2846820544363469,
            0.6881133602366165
          ],
          [
            -1.2192769095372198,
            0.04080915552176459,
            -0.32396143781006786,
            -0.27529335616766604,
            1.6983526594383995
          ],
          [
            -0.5533137638137045,
            0.10612575263696802,
            -0.10622343684623749,
            -0.05676999055146067,
            0.4589607357610675
          ],
          [
            -0.41378878658387785,
            -0.025624599470345073,
            -0.03598487242477912,
            0.43504358832323264,
            0.22136517005698997
          ],
          [
            -1.4147335575476438,
            0.5157371670685968,
            -0.029192856968998798,
            0.4204603817105926,
            1.7414774775408732
          ],
          [
            -0.18651555426625513,
            -0.08642719398334507,
            -0.07489288782079823,
            0.15131656004043129,
            -0.08267512710529874
          ],
          [
            0.9192776230097243,
            -0.09512912300062626,
            0.05232739599128622,
            0.09894717590230022,
            -1.2850337716745674
          ],
          [
            -0.021232600355169315,
            -0.09781552030861926,
            -0.164388719286907,
            -0.142450350679939,
            -0.20657134434305213
          ],
          [
            -0.35479805269494413,
            -0.3982127729183197,
            0.12750850823164436,
            -0.7300143494747463,
            0.013966543994739053
          ],
          [
            -1.3532014153912437,
            -0.16479366962215958,
            0.01206376531236574,
            -0.6072874826827648,
            1.643569331636702
          ],
          [
            0.03722668657879644,
            -0.45284421917609463,
            0.38861526946835767,
            -0.2438147834770767,
            0.21872797272728003
          ],
          [
            1.01588987936528,
            0.11906034309150247,
            -0.5035437068219892,
            -0.5297517818831584,
            -0.6037782378652649
          ],
          [
            0.8106053737367297,
            0.3242256679621567,
            -0.2772495177859864,
            0.02065925554454616,
            -0.7579163187806767
          ],
          [
            0.6251401930148826,
            0.276695014897768,
            0.015491677082510558,
            0.2522349311006686,
            -0.9023417063097966
          ],
          [
            -0.38655819331670216,
            0.3525278847209588,
            0.3006820522433749,
            -0.029810791961091695,
            -0.3407129905493457
          ],
          [
            0.7031482691707728,
            -0.09104117682146312,
            0.033277978217797065,
            0.14717469045657924,
            -0.4694636018462139
          ],
          [
            -0.4841615828419584,
            -0.12346269673267651,
            0.12427534841115916,
            -0.3134806177969267,
            0.7014950244706099
          ],
          [
            0.5163370743153874,
            -0.11291215700985172,
            -0.07206259097003594,
            -0.3855997161608876,
            -0.10356868733997428
          ],
          [
            0.8641436529266606,
            -0.5320994296556869,
            0.15047395847835587,
            -0.5128983544607235,
            -0.5438033276242655
          ],
          [
            -0.5427990218763479,
            -0.16493875653127515,
            -0.20004999799672518,
            -0.6524686739262145,
            1.5357029098634227
          ],
          [
            0.8304186864829456,
            -0.2450657949531445,
            -0.34892927028936427,
            -0.4934608835257185,
            0.4402526885355881
          ],
          [
            -0.10738123897973437,
            0.1545929797577784,
            0.19449877984590044,
            0.08550901205780492,
            -0.34893370977294336
          ],
          [
            -1.1515732839223767,
            0.002122783186557038,
            0.15237828754216542,
            -0.16935957756606346,
            1.7251706608723023
          ],
          [
            -1.1973221425143474,
            0.7764600160266006,
            -0.45410307398103417,
            0.09470933579787588,
            1.7994409131998417
          ],
          [
            0.5712738170982138,
            -0.010633916535374155,
            -0.06665150292134857,
            0.6309548772270369,
            -0.7376680569139215
          ],
          [
            0.34174518329246045,
            0.1937448193190974,
            -0.1737232110954061,
            -0.04433116551394087,
            -0.1662094958778778
          ],
          [
            0.1740639944856476,
            0.16458613630129001,
            0.11068562333872939,
            0.13683249325114544,
            -0.09098098820296326
          ],
          [
            0.2168958588389179,
            0.09452069887029248,
            0.11162488229370367,
            -0.21028219140467114,
            -0.5119640025314889
          ],
          [
            0.03514433217895574,
            0.3677854644206145,
            0.03309361388078931,
            0.04172259469668392,
            -0.06769871894404265
          ],
          [
            -0.2738747629444212,
            0.14899545863213992,
            0.2893314628782845,
            -0.009461535917553646,
            -0.325165367275977
          ],
          [
            0.3047500448633842,
            -0.1618423596139711,
            0.029378703363774343,
            -0.38710892108132905,
            0.21347309274654797
          ],
          [
            -0.7737801529443994,
            0.1048839541361548,
            -0.08884891214184976,
            0.05339981670993876,
            1.193360773773771
          ],
          [
            0.07417127099262026,
            0.0744414304013937,
            -0.08334859743808985,
            -0.1083966819096442,
            0.028585874415398237
          ],
          [
            0.05488941150051707,
            -0.03802712921230843,
            -0.0965822059874567,
            -0.0995138056957748,
            -0.09743613933757428
          ],
          [
            -0.016172071309087682,
            -0.3459612630922534,
            0.013040401816242954,
            0.1450111800762747,
            -0.06391789211293994
          ],
          [
            -0.25131448290629377,
            -0.18161496948329575,
            0.29756486717577846,
            -0.1010484862835179,
            0.010062214621610242
          ],
          [
            0.33612889474461377,
            -0.3296029859467624,
            0.17927480781774704,
            -0.4084480931949507,
            -0.003994800178902956
          ],
          [
            0.01453694026114251,
            -0.4860935537602485,
            0.4813149455637182,
            -0.43287769681708327,
            -0.4252868181734423
          ],
          [
            0.5835607418457767,
            -0.2522985098642339,
            0.21508748888828855,
            -0.020355472579926988,
            -0.9040805744268343
          ],
          [
            0.4482406232047663,
            0.0022905930899579353,
            -0.12961601963842265,
            -0.08758096867292525,
            -0.09750380134495479
          ],
          [
            -0.4327426240346864,
            -0.18066184364279003,
            -0.07714209981465273,
            -0.20792226431334557,
            0.9984116426289156
          ],
          [
            0.049122013828228776,
            0.11554602504298944,
            -0.35842755053724196,
            0.0883070075454143,
            0.31818773091236485
          ],
          [
            0.30975425109485233,
            0.0671739632112487,
            -0.3217521686070766,
            -0.1454108694286902,
            -0.0356633372984856
          ],
          [
            -0.3185429464557366,
            0.08740811013447329,
            0.01781571407325607,
            -0.049757957149510784,
            0.4229083865690437
          ],
          [
            -0.9212168208446995,
            -0.3383776665961798,
            0.032334446243154236,
            -0.21981252569182183,
            1.4982461045228062
          ],
          [
            0.6465450379871355,
            -0.37691950015473463,
            0.23867748325723756,
            -0.08831329903311087,
            -1.1392149080496907
          ],
          [
            -0.0034887390910427495,
            -0.02822772385462219,
            -0.03526724424490224,
            -0.04903195492542493,
            -0.07638956291417003
          ],
          [
            0.35972310902362986,
            0.21928981078591744,
            0.034680042249210424,
            0.05154687288219796,
            -0.4777715290000208
          ],
          [
            -0.2423659160556199,
            -0.05798603253397722,
            -0.031399123262205654,
            0.1027118006760695,
            0.14309231872262182
          ],
          [
            -0.33516277905114705,
            0.2990551852974164,
            -0.2593931615458601,
            0.16119758089791617,
            0.24349207180621965
          ],
          [
            0.394438767425749,
            0.6491287595564295,
            -0.562045782732866,
            0.1290062207191152,
            0.02322289476742683
          ],
          [
            0.6036472349653524,
            -0.056568333218057855,
            0.1429711099649351,
            -0.21547042198203414,
            -0.7530302881512162
          ],
          [
            -0.4309285733644475,
            0.29178351799337454,
            -0.21112130818704142,
            0.09250051115638616,
            0.5423419341423488
          ],
          [
            -0.3872775415544392,
            0.23914483500445444,
            0.018865165160732927,
            0.06133993818151292,
            0.28542431568959314
          ],
          [
            0.09340900997930107,
            0.2190745582750738,
            -0.0392650656982757,
            0.1284392287426969,
            -0.48648572757428427
          ],
          [
            0.017348584680665132,
            0.14193998605339705,
            -0.0486669144879331,
            0.10039226446223673,
            0.06992010943862222
          ],
          [
            -0.10645345633610864,
            0.08362959976210803,
            0.023559819030714312,
            -0.022370725895797895,
            -0.0841979043732326
          ],
          [
            -0.10070154856106675,
            -0.004496605689663718,
            -0.05291443317374028,
            -0.14681187976832596,
            0.031875441796329035
          ],
          [
            0.02207095777317366,
            0.09737407667127042,
            0.10776838161511558,
            0.020509908104935675,
            0.10195742575523037
          ],
          [
            0.06460483348372476,
            0.016989186435161084,
            0.025957711195428404,
            0.06950115539756307,
            0.07199976467137287
          ],
          [
            0.08767538015227837,
            -0.04711221665799653,
            -0.10271530515843039,
            0.09290734215623841,
            -0.15711190795402288
          ],
          [
            0.07743984428686518,
            0.1529374137893797,
            0.147313131695647,
            0.12151173771071565,
            0.07959148283794677
          ],
          [
            0.00227060757141964,
            0.04169226716658921,
            0.11932641016562738,
            0.11664171786012621,
            0.022876390129349288
          ],
          [
            -0.10189557269247727,
            -0.11266701897842306,
            -0.04966550319240926,
            -0.07013263662676977,
            0.14861314684144436
          ],
          [
            0.0005464572687661093,
            -0.047160192083671296,
            0.13424981353175067,
            0.11948784228997104,
            0.14884375421671078
          ],
          [
            0.22314202234974279,
            -0.14970535424595885,
            -0.19619219348434352,
            0.03971070067927929,
            0.17751549939990593
          ],
          [
            0.03281961234088385,
            0.021964247288895167,
            -0.04388122104049792,
            0.06416520690944731,
            0.08796264552263712
          ],
          [
            0.14372302406391116,
            0.11107196616049272,
            -0.10566970345010143,
            0.09848456058650391,
            0.07755656920444387
          ],
          [
            0.10119675289149092,
            0.031024484885868696,
            -0.05538510157906231,
            0.08962379591935273,
            0.019889331086002788
          ],
          [
            0.000762489767750176,
            -0.15576690176531063,
            0.031532566260331095,
            0.12805762287241093,
            -0.15437403058304217
          ],
          [
            -0.11062221652270628,
            -0.057735684581576054,
            0.06473662929274027,
            0.13828423881277632,
            0.03504124114787465
          ],
          [
            0.19159021416031521,
            -0.1594851127560914,
            -0.16435784125878963,
            0.13698168611110395,
            -0.1784292626970947
          ],
          [
            0.20112734477905989,
            0.027240053260459893,
            -0.09923910818429478,
            0.0059257701571715895,
            0.09478898612992621
          ],
          [
            0.08862116627181503,
            -0.15408378260079011,
            -0.11592057150919756,
            -0.02152598502411271,
            0.09960907501029423
          ],
          [
            0.013035528858443479,
            0.08731151797251384,
            -0.05297987700506926,
            -0.1316877590112132,
            -0.09377506055240487
          ],
          [
            0.030878010067330843,
            0.11196878902831495,
            0.12271936414729796,
            -0.037903158918337336,
            -0.13420362445829867
          ],
          [
            -0.04016322883602746,
            0.05665699447071759,
            0.06535920120323713,
            0.14991659452251818,
            -0.1857459032450565
          ],
          [
            0.0956423546572815,
            0.11654818012238681,
            0.0742953092162316,
            0.0377720582297164,
            0.010661900754366396
          ],
          [
            -0.08346052357416624,
            0.1631831264673806,
            0.1306131033447949,
            -0.04642642885085703,
            -0.20310061325698714
          ],
          [
            -0.03163663555268749,
            -0.1334067621373812,
            -0.035816010474404116,
            -0.12491124534014232,
            -0.0787702986033924
          ],
          [
            -0.11160782666288056,
            -0.12361857189718328,
            -0.022615372055931324,
            0.07078859838659786,
            0.07919869485878593
          ],
          [
            0.07390197393544977,
            0.009824225890697938,
            0.19571279339926978,
            0.07640043796062478,
            0.16478664126401968
          ],
          [
            -0.33451376870663685,
            -0.0815624010775532,
            0.06371960898335434,
            -0.1736078743811869,
            0.194626526656624
          ],
          [
            -0.17487359162680596,
            -0.20940626252442554,
            0.08040851006536863,
            -0.1670871184348832,
            0.3691504890858971
          ],
          [
            -0.06583170324512459,
            -0.17240494316398883,
            0.0611243781951963,
            -0.06159582748380606,
            0.11317287171798876
          ],
          [
            -0.6001078337939122,
            0.433878275790333,
            -0.14889261504667614,
            -0.08116822656856568,
            0.2376286214334727
          ],
          [
            -0.5115242206921417,
            0.7683394507073059,
            -0.08838056102862503,
            -0.06809134565580524,
            0.3680893745409923
          ],
          [
            0.013914488120415812,
            0.06867622087089872,
            0.04163809420483912,
            -0.14553718741153424,
            0.19604068755362467
          ],
          [
            -0.03482660055240089,
            -0.0566318027550684,
            0.0681436078660605,
            -0.12135908048631255,
            -0.12989509870840563
          ],
          [
            0.003915309974704332,
            -0.04389710836546217,
            0.07397682698285023,
            -0.1516091951451066,
            -0.12800994335076166
          ],
          [
            0.13387456578040732,
            0.05416938915804742,
            -0.1242693738514345,
            -0.05163784085517653,
            -0.11590515811839909
          ],
          [
            -0.1511834581154519,
            0.10061938952932069,
            -0.10602707165021726,
            -0.16110803002883375,
            -0.11437815816749212
          ],
          [
            0.1862774548448918,
            0.09838885169537337,
            -0.09393649034353732,
            0.1586941492905494,
            0.1555626713424136
          ],
          [
            0.08850752646171145,
            -0.007122742044394851,
            -0.0006286331105622608,
            0.04504160036670724,
            -0.008506013286657652
          ],
          [
            0.006077961108629494,
            0.0017096915576425972,
            -0.004993969488369718,
            -0.15769657058675304,
            0.0900673737161157
          ],
          [
            0.4128060736900097,
            0.06024197748447376,
            -0.38339483202204666,
            0.12202166531362142,
            0.42148671105404856
          ],
          [
            0.5966058281015854,
            0.08926588730111856,
            -0.582480589469062,
            0.013441226554484735,
            0.38602514423398687
          ],
          [
            0.627449498392163,
            -0.15946893924448502,
            -0.5615051146903122,
            -0.04000225250449334,
            0.4887187921063259
          ],
          [
            0.22159588631280094,
            0.06232996373764366,
            -0.012292549649846668,
            -0.1088829352807399,
            -0.0011625007786364879
          ],
          [
            0.08782303214517644,
            0.045931849406361774,
            -0.13763485002995804,
            0.04187549249035199,
            0.04446923153187005
          ],
          [
            -0.047725999153343975,
            -0.05973100427890695,
            -0.008828104145036144,
            0.011411151889085255,
            -0.17252215490532408
          ],
          [
            0.22755743916490676,
            -0.13874410113525826,
            0.03651367992068201,
            0.05227459854711588,
            -0.18075650136762617
          ],
          [
            0.052580049797940176,
            0.0783772388647329,
            -0.056442889522228576,
            0.08904810983838583,
            -0.19305635745570723
          ],
          [
            0.14359401891110746,
            -0.18917666067789618,
            -0.025390808776738372,
            -0.16817597418466723,
            -0.16936480304908882
          ],
          [
            0.3675673880800027,
            -0.04236100208531188,
            -0.25090381264524475,
            0.10648306254481424,
            0.06634846932610076
          ],
          [
            0.037824459613973495,
            0.035029340736601106,
            -0.19092665083392085,
            -0.10143738270203675,
            0.10525317569564328
          ],
          [
            0.14904050270879723,
            0.018315625765431845,
            -0.1540288674552284,
            0.17713229757583984,
            0.01717931524789978
          ],
          [
            -0.15164554333212202,
            0.23216676247534357,
            -0.14910046910638572,
            0.3426877198322014,
            -0.15451353560911485
          ],
          [
            -0.16707199285661103,
            0.20969419355894894,
            -0.03379717529929092,
            0.6139258668496873,
            -0.3386070313425873
          ],
          [
            -0.1674611941864985,
            0.06375423589631808,
            -0.057773697252409335,
            0.17862569274517887,
            -0.3103560703327784
          ],
          [
            0.017244376433207184,
            -0.13787041530495914,
            0.09825492639840762,
            -0.06954528127317076,
            -0.10070185989437636
          ],
          [
            -0.07702231207179752,
            -0.07051091017133058,
            0.06412174910247927,
            -0.1084685545505422,
            -0.04879941631636945
          ],
          [
            0.2591966487220725,
            -0.9237242614410776,
            0.8267441699319249,
            -0.11486330418773147,
            -1.126014192040887
          ],
          [
            0.23292367941408582,
            -0.8981551945974138,
            0.7447091756671746,
            -0.27528557819518373,
            -1.131837914939435
          ],
          [
            -0.25847208322272586,
            -0.03496252556749991,
            0.2554033186201435,
            -0.10796059329991438,
            0.06108392245423328
          ],
          [
            -0.7074842330534872,
            0.870184252411329,
            -0.15238495959881124,
            -0.14684760886899687,
            0.5552842688827202
          ],
          [
            -0.8186418809479816,
            1.0807446176440083,
            -0.44842102936200334,
            -0.3397230875666452,
            0.5251550706218724
          ],
          [
            -0.2765278404794013,
            0.2142469292315556,
            0.010215732558630616,
            0.128002724291746,
            0.10868994280542198
          ],
          [
            -0.15324054932213538,
            0.047919558230442146,
            0.021172032851679227,
            0.08132026186357087,
            0.16389509389624587
          ],
          [
            0.10209294321328706,
            -0.0443438015523618,
            0.04293366528878657,
            -0.11832766094300123,
            0.02211025205340449
          ],
          [
            0.12287806370108,
            0.11553472992350346,
            0.005183508416023859,
            -0.016222610134514464,
            0.09089230995256421
          ],
          [
            -0.08055311156289167,
            -0.10086610853729783,
            -0.15173526281133864,
            0.06848285846876179,
            0.18528355017614784
          ],
          [
            -0.08045522390374127,
            0.10556534020185675,
            -0.0296967542268906,
            0.16186321128128267,
            0.19794681183389312
          ],
          [
            0.18542530534227822,
            -0.11703131502743586,
            -0.28604336810455966,
            0.07959834229410118,
            0.24165329496788307
          ],
          [
            0.18780159040285727,
            -0.13272504107625419,
            -0.11349450195806376,
            0.02350028420247713,
            0.3465040446783152
          ],
          [
            0.6590153086465732,
            -0.11508887081982012,
            -0.6444286434054811,
            -0.011716145672955059,
            0.4294449307108911
          ],
          [
            1.2089241438529206,
            -0.07109662094612755,
            -0.8784321848261909,
            0.06406219624619014,
            0.8721855351576825
          ],
          [
            0.9155903289084908,
            -0.3107984550480268,
            -0.6603206598878775,
            0.015100795573764342,
            0.5813130805084962
          ],
          [
            0.35697826036115515,
            -0.1494553317267051,
            -0.2754391429927497,
            -0.01695428494641334,
            0.09130609771688436
          ],
          [
            0.08620041733312665,
            0.09481964836274463,
            -0.029632833161098375,
            0.18556278701751677,
            0.08614928618898988
          ],
          [
            -0.05002702599422079,
            -0.004370179060015534,
            0.03263083639233231,
            -0.016786136383380952,
            -0.027757804606248614
          ],
          [
            0.16449022965374174,
            -0.15454975184971712,
            -0.0667321599965348,
            0.01427251171763896,
            -0.09970914815456514
          ],
          [
            0.2678430302614969,
            -0.08484561978619504,
            -0.13450441040249217,
            0.06346213836896282,
            -0.38362204434510516
          ],
          [
            0.5286489222127008,
            0.12351713316271742,
            -0.3290503533989645,
            -0.09344570203118202,
            -0.08896017229633668
          ],
          [
            0.35424571345453887,
            -0.0956297217127608,
            -0.08651162338957968,
            0.011783662196443383,
            0.06233300921668088
          ],
          [
            0.1574963029923948,
            -0.1094068559599524,
            -0.1923908954965232,
            0.01985640611431581,
            0.04436103729597046
          ],
          [
            -0.08404949052758609,
            0.004849819800272837,
            -0.16689625148307238,
            0.35555384706459997,
            -0.0640826142128432
          ],
          [
            -0.06243958104676362,
            0.4358524814181911,
            -0.051797434448433204,
            0.5049358941905308,
            -0.5034272967986104
          ],
          [
            -0.11069622413193234,
            0.2036826187087755,
            0.1115789744392941,
            0.6127279995268561,
            -0.3612410857374089
          ],
          [
            -0.012024541162370981,
            -0.012364147706794861,
            -0.09175123674742354,
            0.24555343064925342,
            -0.2005336779524566
          ],
          [
            -0.17459979323379293,
            -0.16970478416183019,
            -0.010945324533310465,
            0.007349379022642307,
            0.03511557980251717
          ],
          [
            -0.2346405160159298,
            -0.31404577788137616,
            0.2680813269455494,
            0.037038973076567776,
            0.1604995455488469
          ],
          [
            -0.4402672579932412,
            -0.9393479451423463,
            0.9668883767865153,
            -0.19886414240334985,
            -0.1994273506364608
          ],
          [
            -0.6043244165812652,
            -1.0915049766794929,
            1.0401152360947574,
            -0.120736703849258,
            -0.2930647651404092
          ],
          [
            -0.20803699969480452,
            -0.22530860572961564,
            0.20490802283270146,
            -0.22131160169220407,
            0.29037771863581074
          ]
        ]
      },
      {
        "activation": 1,
        "biases": [
          0.09465070533010007,
          -4.5714233159610576,
          -2.149052901445429,
          -2.662720260148612,
          -2.5642011195929038
        ],
        "cols": 5,
        "rows": 5,
        "weights": [
          [
            3.3050356154747247,
            6.644321307457946,
            -6.144429694932935,
            -5.85474160066179,
            -0.2401240030232152
          ],
          [
            -4.844538757984346,
            -1.795790059259789,
            -6.979093173509962,
            4.5553381250093965,
            2.1048674302006956
          ],
          [
            1.9421838207391213,
            -6.414324578038712,
            2.639265472632631,
            -4.687140786169034,
            -2.3457883549334637
          ],
          [
            -2.5912089728510446,
            -1.3128495765114192,
            -0.909037836579615,
            -2.014846863340888,
            5.9012845858010206
          ],
          [
            -7.36305090532634,
            2.598076493465339,
            4.43146828256076,
            2.8370524418234067,
            -3.977643049817093
          ]
        ]
      }
    ]
  }
}
