{
  "labels": {
    "labels": [
      "3",
      "5",
      "1",
      "6",
      "2"
    ],
    "rows": 5
  },
  "mlp": {
    "layers": [
      {
        "activation": 1,
        "biases": [
          -0.13847080355922525,
          -0.09420512412777629,
          0.15554903434642176,
          -0.05703119025836665,
          -0.038654098696402774
        ],
        "cols": 5,
        "rows": 210,
        "weights": [
          [
            -0.0639326292965942,
            0.27859140032626944,
            0.16333677608235864,
            -0.20825417876852204,
            0.20362120824070423
          ],
          [
            0.04221812077830083,
            0.04996647659864961,
            0.13713148537309275,
            -0.01003214262643946,
            0.18995310419608444
          ],
          [
            -0.11667563284802118,
            -0.105328786028439,
            0.03259455429366046,
            -0.06611797272523429,
            0.048319015215649054
          ],
          [
            0.07805377278164372,
            0.1502713640948236,
            0.13798766692857872,
            -0.07337161947029003,
            0.1549893422704087
          ],
          [
            -0.012102479977686341,
            -0.041628517737571015,
            0.09716734935290793,
            0.08717345001492974,
            0.03103125277932901
          ],
          [
            -0.07142700587313909,
            0.12023991379247713,
            0.014632012939758061,
            0.10836367197502896,
            0.04801610216548618
          ],
          [
            -0.1721186390175308,
            -0.2222165763311327,
            0.007851348209011757,
            -0.02965901574304901,
            0.07980063624359106
          ],
          [
            -0.10522439460872045,
            -0.12677567497518985,
            0.0010887667825592823,
            0.03407021439280342,
            0.3060284122284608
          ],
          [
            -0.39740445168497257,
            -0.48788222116452057,
            0.35222362295995957,
            -0.41512888989922675,
            0.4890073806691498
          ],
          [
            -0.6630249788182685,
            -0.5236326619258154,
            0.6406008168988252,
            -0.3473206603600527,
            0.3714090225432916
          ],
          [
            -0.8176430726028038,
            -0.2532648141704778,
            0.3712763224245449,
            -0.14339746603850478,
            0.295321768697888
          ],
          [
            -0.4217649635675532,
            -0.28816395965149316,
            0.11239886961298838,
            -0.08376396538628575,
            0.04975936713925727
          ],
          [
            -0.3753563026579496,
            0.46483948624413857,
            -0.08662482043437354,
            0.2478772575312782,
            -0.08615277257418175
          ],
          [
            -0.3565347803338063,
            0.40337833676227497,
            -0.28398147122977097,
            0.3055159190028327,
            -0.08646916791232298
          ],
          [
            -0.20003466044155327,
            0.15346571985004478,
            -0.00014760809573368633,
            -0.023661579770189324,
            -0.11423636441251141
          ],
          [
            -0.16436733894220737,
            0.14343619413091382,
            0.20037653966285238,
            0.07578980451084504,
            -0.41773445523589364
          ],
          [
            -0.04979282320906299,
            -0.13365197797136466,
            0.1355117921772524,
            -0.02972005252572632,
            -0.4398199330462598
          ],
          [
            0.14699763247574754,
            -0.37113593210792256,
            0.4316727474587863,
            -0.22319931218596098,
            -0.9238180342233713
          ],
          [
            0.02040170054438429,
            -0.1633581334816849,
            0.05876991460824892,
            -0.2145098457658133,
            -0.5248962153087919
          ],
          [
            -0.07006756111342206,
            -0.04395721409897807,
            0.23492031374219058,
            -0.04477560247568786,
            -0.17527080971115735
          ],
          [
            0.16366187969333384,
            -0.04177721087215258,
            0.0651675968299697,
            0.10904209574834377,
            -0.07269506333745321
          ],
          [
            -0.026669163070304834,
            -0.02630857319214038,
            0.11259366237218894,
            0.14066187437163782,
            -0.16272767539180022
          ],
          [
            -0.1355694782740612,
            0.013872826340101726,
            0.04240289611625845,
            -0.03905682519671495,
            0.1596890788512728
          ],
          [
            -0.18082430850213188,
            0.023878831054282793,
            -0.10579322478486805,
            0.06834252571315541,
            -0.11352999705969652
          ],
          [
            -0.17231803146278532,
            0.07858905345936576,
            -0.09832969129502328,
            0.04536519322104929,
            0.07557699577011162
          ],
          [
            0.023066590858866746,
            0.012663473381556592,
            -0.12716448254893978,
            0.18750010713400722,
            -0.052827572832875695
          ],
          [
            0.1989508605766581,
            -0.14405697807769557,
            -0.38387551027611466,
            0.329411214811693,
            0.07198063520315207
          ],
          [
            0.32767192036072956,
            -0.15710164683195654,
            -0.34574250647778876,
            0.3003349607919531,
            0.31818140271278633
          ],
          [
            0.22332532466603486,
            0.11750169728065958,
            -0.28844495410732357,
            0.027223653484916475,
            0.18018113755451803
          ],
          [
            0.1975906085015365,
            0.44702148006239506,
            0.012609365500136888,
            -0.41059999354259175,
            0.19670209273798717
          ],
          [
            -0.060325354820075665,
            0.15863266419087982,
            0.13209492042876372,
            -0.07898572565769447,
            0.17800702395348159
          ],
          [
            0.049476049342189264,
            0.13657606646366288,
            -0.1140372220055714,
            -0.0921848292591458,
            0.01858070342981893
          ],
          [
            -0.03881759255151392,
            0.020000764385050423,
            0.1299846557935845,
            -0.00808256602576572,
            -0.0008525895424924482
          ],
          [
            -0.07659283567648273,
            0.12168115994421914,
            0.07748577883324051,
            0.005149420807732792,
            -0.07328565366667113
          ],
          [
            -0.18751853211353117,
            -0.10633436757183401,
            0.09351951279385112,
            -0.00550494742556616,
            0.09567213112858856
          ],
          [
            -0.02214504961637156,
            -0.13766575254003227,
            0.14475554746283048,
            0.06702987601474909,
            -0.057836735780916915
          ],
          [
            0.010025880568095741,
            -0.025323849071101818,
            0.07571103012384522,
            0.0048335345986361,
            0.0727861208269573
          ],
          [
            -0.012201020586986055,
            -0.019203689520216987,
            0.1442729220918445,
            -0.11009270294397058,
            0.09954233471990716
          ],
          [
            -0.23276523765403626,
            -0.15450608640490776,
            0.04292431467880487,
            -0.2702522761619362,
            0.27650936322469594
          ],
          [
            -0.4391293409854049,
            -0.34030000381334513,
            0.3204581829708695,
            -0.2544731147451833,
            0.23375617371310953
          ],
          [
            -0.20047587892117102,
            -0.23121548818212279,
            0.280464006126597,
            -0.18179838519658686,
            0.03599405482593292
          ],
          [
            -0.1365865569599946,
            -0.20778423975935653,
            0.17074149598993232,
            -0.10022630433743318,
            0.01766249312722608
          ],
          [
            -0.07203513036617086,
            0.3035048006205169,
            -0.24033504649020496,
            0.26691892668669587,
            -0.12505870445438358
          ],
          [
            -0.0721820600364493,
            0.30993133058017713,
            0.030259071929218742,
            0.130372844593212,
            -0.2238854879595731
          ],
          [
            -0.07107606798149893,
            0.20009865083709463,
            0.01673219069503283,
            0.1772465473643214,
            0.04969045460261145
          ],
          [
            -0.10287707036663571,
            0.07558743650581423,
            0.11656106900413961,
            -0.13711249841765732,
            -0.06546119925977516
          ],
          [
            0.0707522102345317,
            0.00953978272187366,
            -0.021202703891533014,
            0.04753132749693989,
            -0.15666732126600824
          ],
          [
            0.07501266547138591,
            -0.3210796760423986,
            0.23609042924974344,
            -0.031906552716628275,
            -0.44408151876577456
          ],
          [
            0.23893388711315722,
            -0.13863735875761884,
            0.31222472779582755,
            0.062164953844143424,
            -0.2839055402970124
          ],
          [
            -0.06264600200007112,
            0.05502903941679149,
            -0.08474172213345788,
            -0.13686739632672135,
            -0.11291703673708482
          ],
          [
            0.09454535152626406,
            0.10713403132893959,
            -0.04468156372487775,
            -0.0015936068514734256,
            0.03149972109409246
          ],
          [
            0.10641273559870178,
            0.014070652273584918,
            -0.09365580043118632,
            0.12202468590334763,
            0.05716223740345871
          ],
          [
            0.15106428482617512,
            0.05261292659676546,
            0.18513689987915918,
            0.08088886489435373,
            0.14543082203628113
          ],
          [
            0.1435314502439398,
            -0.179041532759334,
            0.06420563538473893,
            0.14105602973166673,
            -0.0012479719150758157
          ],
          [
            0.016953682112214086,
            0.01968487121261973,
            -0.05596764564275385,
            -0.10662852970287023,
            -0.011342985000587346
          ],
          [
            -0.028087426659206216,
            0.104057004093026,
            0.1176817973262315,
            0.16036696294960348,
            -0.06418527847271005
          ],
          [
            0.019846360414150898,
            -0.16794515602635354,
            -0.16478796605438245,
            0.21034267259470044,
            0.2667249523934129
          ],
          [
            0.1522042421660663,
            -0.11734384112621095,
            -0.18423288094682055,
            0.36038808775459175,
            0.3381670904392099
          ],
          [
            0.20783937178671796,
            0.020469058340604376,
            -0.19718817309659672,
            0.1244745684929886,
            0.16910643283209154
          ],
          [
            -0.07214482536313661,
            0.2633026419457732,
            -0.15064018347079397,
            -0.06337993766244092,
            0.06947276645351082
          ],
          [
            -0.29143391358239623,
            0.19510784788299718,
            -0.46215471840005407,
            0.3741645138941911,
            0.23155875239584922
          ],
          [
            -0.27238889956729995,
            -0.2998166550316988,
            -0.277706586245555,
            0.21226184010275484,
            0.255557765003939
          ],
          [
            -0.030139465050833945,
            -0.05007879343081519,
            0.4300793441594747,
            -0.5436572450841161,
            0.04578651758146802
          ],
          [
            -0.33242046820435595,
            0.20226814252525008,
            0.10256831956367983,
            -0.24528913157121307,
            -0.40515084982488214
          ],
          [
            0.07297733261453755,
            -0.15570793108812875,
            -0.12021141122068871,
            0.02514042595158391,
            0.42018888246206193
          ],
          [
            0.5844954260191079,
            0.1522153586952637,
            -0.2814816197111207,
            0.05963169516315372,
            0.32973338149485926
          ],
          [
            0.2468400325755113,
            0.16296824729054682,
            -0.19894497691414578,
            0.04563367857336428,
            -0.0890819731323666
          ],
          [
            0.02941786903555358,
            -0.23921996468447063,
            0.1629818621975153,
            0.2275460362492075,
            -0.5851768575544934
          ],
          [
            -0.01242266782797262,
            0.029617049078933422,
            -0.22366395663120714,
            0.5042998799122634,
            -0.2971756703398097
          ],
          [
            0.41038984427371294,
            -0.49831581802244784,
            0.1803053947014887,
            -0.07909369782541167,
            0.263959567469977
          ],
          [
            0.5985812067868735,
            -0.5129246101169088,
            -0.02423838474420911,
            -0.3449352710373636,
            0.4034518390593214
          ],
          [
            0.7736542731651685,
            0.016574754420867744,
            0.06580554597622292,
            -0.2298414247631769,
            0.09017693912833298
          ],
          [
            0.6609415903750839,
            0.34408068714722423,
            -0.14823442785524316,
            -0.3024008012389095,
            -0.014431749244029698
          ],
          [
            0.5160033875626607,
            -0.6452914805788866,
            0.3181264884196103,
            -0.6726087015239828,
            0.2911399774769293
          ],
          [
            0.2671400093624804,
            -0.9710247983593044,
            -0.3403600446468723,
            -0.02234194643548722,
            0.7640569691171017
          ],
          [
            0.0883220272445623,
            -0.5485919861573632,
            0.1137748356516993,
            -0.026918621906622232,
            -0.0029759817502456073
          ],
          [
            0.02989863506597196,
            0.2430919677335382,
            -0.24345062458825772,
            -0.0014110208323226635,
            -0.07272006367836337
          ],
          [
            0.22195740526209018,
            -0.11159009271281958,
            -0.26671158490000785,
            0.3129319905620062,
            -0.092267457292421
          ],
          [
            0.6083853335223043,
            -0.5104671632800794,
            0.2439958644441685,
            -0.5977159960386221,
            0.1914986241037301
          ],
          [
            -0.5337827929885447,
            0.5223834827543514,
            -0.23457251180785516,
            0.36328193939025116,
            0.014399498661425751
          ],
          [
            0.019136917302073304,
            0.45286593316707535,
            -0.44129683561673017,
            0.5057396727466691,
            0.250750001715389
          ],
          [
            -0.3144064942466089,
            0.07564405852588077,
            0.2302031913529638,
            -0.3162098735145484,
            0.02033349095491168
          ],
          [
            -0.3626592651873485,
            0.20626801853966423,
            0.1235481275906591,
            -0.024746972622482866,
            -0.1355490407710732
          ],
          [
            0.0054020087978539025,
            0.05757927795065899,
            -0.015023371609552435,
            0.06470270162890801,
            -0.18656387872715668
          ],
          [
            0.11901926115443111,
            0.3201599268056345,
            -0.036529207454775975,
            -0.06374864214976023,
            -0.1691395191101847
          ],
          [
            -0.37307762081862356,
            0.5496634892915949,
            0.8199421572710311,
            -0.9728659728312589,
            -0.39004101682358927
          ],
          [
            -0.08705005142792759,
            0.21942891210450935,
            0.14315174393041824,
            -0.35467058578538935,
            0.22614331351650696
          ],
          [
            0.11804037882143556,
            0.2992183538877355,
            -0.21012438849081905,
            0.17207364645867987,
            0.3527358114094335
          ],
          [
            0.08414932148423102,
            -0.27679580636131845,
            -0.2377387487785085,
            0.5021991869117249,
            -0.15848487664561817
          ],
          [
            0.21146464259275521,
            -0.4823376691022472,
            -0.17016816231090795,
            0.24352833047101197,
            0.06536562525430417
          ],
          [
            -0.13119492572292724,
            0.4405627394209415,
            -0.22982039800059248,
            0.1047284628681539,
            0.15194506741520605
          ],
          [
            -0.5669702452037493,
            -0.26106228129671233,
            -0.439805739032702,
            0.9727497533670264,
            0.3781175307297247
          ],
          [
            0.08965724887988395,
            0.02288604918876453,
            0.014837934468175855,
            -0.05011924606717247,
            -0.21498079326590297
          ],
          [
            -0.02072448318093355,
            0.155186800951651,
            0.2785298775934055,
            0.011550842823475934,
            -0.9515455306650693
          ],
          [
            0.2225271924196555,
            -0.5218221668034989,
            0.2886840650208049,
            -0.06515191567216747,
            -0.4296831589193393
          ],
          [
            0.4517842234468594,
            0.05182817302328687,
            -0.08707347655589966,
            0.008123175742740225,
            0.24023733391244362
          ],
          [
            0.044561170135897554,
            0.11982446214885333,
            0.09571016835548961,
            -0.11339895550832234,
            0.17280943640800828
          ],
          [
            -0.09929433721993933,
            -0.1172352161935578,
            0.4001835931061719,
            -0.1746740088723836,
            -0.16711187555392504
          ],
          [
            0.508164607809757,
            -0.12050048225380168,
            0.1932169645306611,
            -0.3802833697686124,
            -0.5684987067287948
          ],
          [
            0.3062794341398522,
            -0.42991076979631104,
            0.3494628662148484,
            -0.33071236403178056,
            -0.14644461241932763
          ],
          [
            -0.4025997312367021,
            1.122399514319914,
            0.1394528616638943,
            -0.4001656581611402,
            0.09145400258218363
          ],
          [
            0.23306861634362444,
            0.5966428899896059,
            0.04382272782739163,
            -0.6114813964416482,
            0.09945945839229725
          ],
          [
            0.21737662745450606,
            0.5064726742591229,
            0.22495513403659553,
            -0.5858548862463301,
            -0.17833143835973456
          ],
          [
            0.44010291940502216,
            -0.409839729860627,
            0.24873006162866865,
            -0.39853705206851825,
            0.18164410763384536
          ],
          [
            0.0017078074233495685,
            -0.6421726879375482,
            -0.45861906178252887,
            0.8611442925259487,
            0.018799096407957693
          ],
          [
            0.1728880552163021,
            -0.943100249746129,
            0.17811124339325796,
            0.019006866821447563,
            -0.29168753585003304
          ],
          [
            0.010885827368069255,
            0.31399585782561434,
            -0.3206873871891807,
            0.3428928925811794,
            -0.0723576771520877
          ],
          [
            -0.18023133188404067,
            -0.39560959986239436,
            0.07521933263865571,
            0.2394757767042369,
            -0.374175176769587
          ],
          [
            0.3930386175464751,
            -0.883982157534598,
            0.4610659982101744,
            -0.24245270987337567,
            0.17272989197539934
          ],
          [
            -0.6559508817671807,
            0.09891845367071826,
            -0.2822075736238157,
            0.373475129075044,
            0.40822748954004345
          ],
          [
            -0.13622071178612918,
            0.33240234907937866,
            -0.3266906959964069,
            0.3307576361606298,
            -0.0017661208414445928
          ],
          [
            -0.14038397536161118,
            -0.02311245676335591,
            0.0974803746445389,
            0.009061244138222822,
            -0.21293262572419303
          ],
          [
            -0.2685531003324941,
            0.10092992344732273,
            0.07678067053628367,
            0.22227709602261206,
            -0.18490587630405061
          ],
          [
            0.07882674548151566,
            0.035543226670651996,
            -0.3244751637478359,
            0.35684589244385667,
            -0.023536020003996818
          ],
          [
            0.040443540059710854,
            0.1480674781747436,
            -0.13356892838787446,
            0.20311613194310926,
            0.25832446690815913
          ],
          [
            -0.08095202980087171,
            0.11690249273654135,
            0.046653158492372566,
            -0.16484433446780192,
            0.34584357318770204
          ],
          [
            0.19405952557417963,
            0.1879399759633307,
            -0.2953455892849808,
            -0.1496530125821686,
            0.6172060735799697
          ],
          [
            -0.08361673843791823,
            0.38973822018482807,
            -0.3661721560773635,
            0.15368226051067688,
            1.063551137501302
          ],
          [
            -0.42117325172719455,
            -0.2536288782154048,
            0.07654912496212209,
            0.2016630661439877,
            -0.11143474024448438
          ],
          [
            0.38899935257413343,
            -0.6593186714276638,
            0.37725780866888703,
            -0.5957430754453394,
            -0.07014436069440917
          ],
          [
            0.09006088778106003,
            0.1107419595420839,
            -0.009788228232489036,
            0.08966690318542131,
            0.04073178599190784
          ],
          [
            -0.021649508315702726,
            0.01761501998424729,
            0.06453882769773489,
            -0.01933157996330403,
            -0.14047724995641644
          ],
          [
            -0.07131542294613408,
            -0.03991751734322891,
            -0.030927091835372275,
            -0.14411092750725996,
            0.008722610059320667
          ],
          [
            0.02170716010405612,
            0.09238890799524435,
            0.11691092877269421,
            0.017040281410322763,
            0.09639790786587336
          ],
          [
            0.05636724935324867,
            0.012113189613969505,
            0.03540538785326525,
            0.06718443227282916,
            0.06784125640395038
          ],
          [
            0.07264441716881934,
            -0.059647986139251284,
            -0.09014884867267839,
            0.08636968780480982,
            -0.1535497004278316
          ],
          [
            0.03310229970262171,
            0.12089700407015089,
            0.18255693419759667,
            0.09685820181964168,
            0.10047616492906467
          ],
          [
            -0.11973119952782976,
            -0.035651299446895206,
            0.20624342988626984,
            0.050921363621591643,
            0.08554328801543491
          ],
          [
            -0.35708452710939514,
            -0.2574512935890837,
            0.11684958150367054,
            -0.20316121484927244,
            0.2664037096347182
          ],
          [
            -0.37569918083558496,
            -0.2375119054815271,
            0.36695042503403463,
            -0.04975938956963096,
            0.29990621442171667
          ],
          [
            -0.21645118190988002,
            -0.298228579991928,
            0.07985821068591478,
            -0.0747334317842402,
            0.231072181861435
          ],
          [
            -0.41841345297557897,
            -0.012936235663762261,
            0.24687181567910774,
            0.053132361087139174,
            -0.0186535559366441
          ],
          [
            -0.14441469208550584,
            0.18137603932217333,
            0.01582644490810987,
            0.20479670265040933,
            -0.10787451035892621
          ],
          [
            -0.03151397923138306,
            0.13859963945596723,
            -0.08992950911072216,
            0.23297629955392887,
            -0.11285149984669707
          ],
          [
            -0.0679184835203606,
            -0.08833573379157186,
            0.00685817573992815,
            0.19967169804461316,
            -0.22027003275248352
          ],
          [
            -0.145731622703525,
            -0.03057125548648155,
            0.07185766306583835,
            0.17718137496073325,
            -0.058512642663664724
          ],
          [
            0.16100327363366032,
            -0.17915528459049962,
            -0.10309186434034916,
            0.15353669956250304,
            -0.35036705446444044
          ],
          [
            0.18243935772535175,
            -0.05072365730317283,
            0.024921143887630778,
            -0.0042252084178525,
            -0.16409665739772458
          ],
          [
            0.050536408110253006,
            -0.1863717100176532,
            -0.008450287654561439,
            -0.03070841838150858,
            -0.10645070095421308
          ],
          [
            -0.04958036524609473,
            0.11610798127330345,
            -0.013046467518826935,
            -0.12564354609396922,
            -0.16375480643406845
          ],
          [
            -0.014176995420904415,
            0.12547020910772116,
            0.13336723038319132,
            -0.043339063375401464,
            -0.12674200938715657
          ],
          [
            -0.04554769332088409,
            0.03374240718272254,
            0.07011628581433461,
            0.11007047326534929,
            -0.14669050062173508
          ],
          [
            0.1145664943973351,
            0.07341587220112725,
            0.0764232579769349,
            -0.02299025369017402,
            0.05836260827724169
          ],
          [
            -0.06084245047779724,
            0.11469657942981246,
            0.13170675725485703,
            -0.10950940651715838,
            -0.15340213816963572
          ],
          [
            -0.011548188778330474,
            -0.17205612395530184,
            -0.04191383067643155,
            -0.16177955328898702,
            -0.040858125043128996
          ],
          [
            -0.053612070718787624,
            -0.16013616262663202,
            -0.05575112970324849,
            0.07289245633990807,
            0.08428411216831111
          ],
          [
            0.213138042455591,
            -0.004001326061877528,
            0.0932812502597941,
            0.1337580617247278,
            0.12862333659704892
          ],
          [
            0.014423017701924085,
            -0.06934287481861334,
            -0.11623096111450659,
            -0.09572069969116193,
            0.019647726461171522
          ],
          [
            0.13827861861259505,
            -0.15704062371884178,
            -0.056045933260770044,
            -0.1338921839223016,
            0.19283108981664257
          ],
          [
            0.04699032148882855,
            -0.13910432995433727,
            0.027313777675938664,
            -0.06674927429616793,
            0.08249134845779153
          ],
          [
            0.03531223818553673,
            0.3200413453369754,
            -0.007818065022968479,
            -0.20423169034013344,
            0.0652304786937217
          ],
          [
            0.1349522155560934,
            0.17721849144567084,
            0.11843750428874696,
            -0.006002396101181398,
            0.018612907796759424
          ],
          [
            0.10648680615185675,
            -0.055284498410507,
            0.10059887651215794,
            -0.13662972475577054,
            0.12792188641381014
          ],
          [
            -0.05653664766778458,
            -0.07521771252376538,
            0.10126461102539365,
            -0.1359702786028288,
            -0.13376969113689666
          ],
          [
            -0.04080707344706236,
            -0.07503336426221696,
            0.1126637493728587,
            -0.17127762747589823,
            -0.12034110517531511
          ],
          [
            0.07149498649818012,
            0.010263190075287077,
            -0.08067507590573186,
            -0.0814757883250265,
            -0.08663591843710954
          ],
          [
            -0.27179333870057215,
            0.024488814923972667,
            -0.028430681783048813,
            -0.22105558351187204,
            -0.04120182476500311
          ],
          [
            -0.08612133113371716,
            -0.06490751025545197,
            0.08852479605581892,
            0.021078957131021616,
            0.3055836650753843
          ],
          [
            -0.4943190723295173,
            -0.36066682320590415,
            0.4180142243676134,
            -0.219481506405355,
            0.2797381644790669
          ],
          [
            -0.8914166629201293,
            -0.46842298747304545,
            0.63455892168489,
            -0.5110659292509666,
            0.4325128975063849
          ],
          [
            -0.6972586396097511,
            -0.2810394178411031,
            0.3499765502696982,
            -0.10197979035051882,
            0.4805080169682938
          ],
          [
            -0.6904816049925786,
            -0.003960265915881091,
            0.201355000080169,
            0.02152011400721306,
            0.0047808341169024784
          ],
          [
            -0.3943306293736345,
            0.2680578935423367,
            -0.28725718773352354,
            0.37271959840613766,
            -0.10180971721338893
          ],
          [
            -0.3759072444508317,
            0.6265367891598852,
            -0.14758553514614647,
            0.3330687538631214,
            -0.34456497465744285
          ],
          [
            -0.11058110501806828,
            0.27681441974361526,
            -0.1581440634039955,
            0.06670457383756646,
            -0.049580191083017866
          ],
          [
            -0.15511110471801068,
            0.07945226961006836,
            0.017770428786631254,
            0.04819402571270131,
            -0.3035916972290128
          ],
          [
            0.1508715620062783,
            -0.15551741483111875,
            0.15922139162329643,
            0.09067906419327358,
            -0.4778319226266708
          ],
          [
            -0.0017567034238546676,
            -0.07912486758751519,
            0.22013359785598105,
            0.0559325540040632,
            -0.7383292846858432
          ],
          [
            -0.03707197875759524,
            -0.3121713827322716,
            0.25003520531943635,
            -0.19747748767435244,
            -0.5445860882146254
          ],
          [
            0.1302849211159184,
            -0.1092170898994627,
            -0.044292124809385505,
            0.07399063276919296,
            -0.06196427726498549
          ],
          [
            -0.05942530301969716,
            0.011498737159833352,
            -0.1200202169819382,
            -0.1255652609875414,
            0.0842791020725215
          ],
          [
            0.143374727262653,
            -0.0660334985865192,
            -0.1384317167659055,
            0.04980835511674448,
            0.12293795421887166
          ],
          [
            -0.0644386925976146,
            0.0024750966531943475,
            -0.1521090878974675,
            0.021126971730314095,
            0.10692687815194732
          ],
          [
            -0.05823577034760282,
            -0.0984307721082078,
            -0.05041265614848244,
            0.16600706963329417,
            0.04313936513069088
          ],
          [
            -0.11520640306581141,
            -0.08655165842151867,
            -0.08884271240363724,
            0.010207453112744985,
            -0.12039270665093144
          ],
          [
            0.17337353255343724,
            -0.22481102713400264,
            -0.06801816708550022,
            0.03230353616360658,
            -0.00551624781959619
          ],
          [
            0.30132426276536195,
            -0.06307230921970744,
            -0.35214189468804247,
            0.15722382777187718,
            0.06183801179922909
          ],
          [
            0.3166306395525342,
            -0.31070606212341045,
            -0.2977148380931103,
            0.33187355740791374,
            0.1456220250247502
          ],
          [
            0.2540925740984335,
            0.11549910003777729,
            -0.2755974249059902,
            -0.11133653906322602,
            0.18177487243911394
          ],
          [
            0.26174121119460786,
            0.6042859501584222,
            0.07399815370923278,
            -0.30132087173467664,
            0.12155893348115858
          ],
          [
            0.08959011700046338,
            0.9264362506192072,
            0.08080717575132389,
            -0.46227158400653884,
            0.5136444323500426
          ],
          [
            -0.11590586533865165,
            0.2677125103647181,
            -0.03204355876403512,
            -0.33946579921058967,
            0.16800505333484955
          ],
          [
            -0.2169873174867974,
            0.09243516390381476,
            0.12502791782990239,
            0.06578471859067021,
            0.07419661604855
          ],
          [
            -0.21440455657186774,
            0.0030844404731789413,
            0.09832853408777414,
            0.023340497351332413,
            0.18137998708973005
          ],
          [
            0.004350415205979432,
            -0.09991433502758078,
            0.1266905667339698,
            -0.18793101762707023,
            0.08829621758702684
          ],
          [
            -0.03457630260563504,
            0.026565004806248665,
            0.12971088664198294,
            -0.11277482898215198,
            0.2040674916801942
          ],
          [
            -0.3464444935142696,
            -0.26947079084088404,
            0.05665179178180334,
            -0.08051816223462598,
            0.36478769010895606
          ],
          [
            -0.526942446922557,
            -0.17499473859034814,
            0.30451009717889893,
            -0.04553178095565267,
            0.4643907887885853
          ],
          [
            -0.8171347092103725,
            -0.6982801298317745,
            0.41678365216720786,
            -0.3205884654804129,
            0.6869754144983408
          ],
          [
            -1.447086248108384,
            -1.0021717789780273,
            1.0171554932649742,
            -0.5764150648456909,
            0.9274610497429727
          ],
          [
            -1.3121513410709476,
            -0.7406855373660224,
            0.69804154905632,
            -0.41624595024423217,
            0.5400295531853445
          ],
          [
            -0.8428230187000207,
            -0.07906179156967863,
            0.46539202616435804,
            0.08751680871180845,
            0.19760652377712898
          ],
          [
            -0.6730002512788472,
            0.5125237697944726,
            -0.15934767126075636,
            0.6195804304356894,
            -0.35233233958614796
          ],
          [
            -0.5887803994912066,
            0.69073356335292,
            -0.2981292454079716,
            0.5204479033252587,
            -0.4853409474912674
          ],
          [
            -0.2345324060101266,
            0.47070276360654717,
            -0.049734901946906204,
            0.23170154443678834,
            -0.06697088129215749
          ],
          [
            -0.09224114693230842,
            0.0011651777680610036,
            0.20388490984553892,
            -0.05731788343001116,
            -0.4355298653835891
          ],
          [
            0.22028917886127178,
            -0.4086691155266658,
            0.3153057048455141,
            -0.029714579001218957,
            -0.9095393240112849
          ],
          [
            0.37601035340150424,
            -0.693732877204157,
            0.6263928668820192,
            -0.11059476805059908,
            -1.7539026226213192
          ],
          [
            0.40505738446682926,
            -0.34993676888711583,
            0.34311291221245094,
            -0.2590458371098642,
            -1.0426136822625283
          ],
          [
            0.011886919062371472,
            -0.24422686487203224,
            0.26729390108816625,
            -0.04454492727831929,
            -0.2580740539668847
          ],
          [
            -0.021903200218235618,
            -0.18342206564937216,
            -0.03792562448846119,
            -0.025691540020938083,
            -0.048468856736861125
          ],
          [
            -0.11437933643940659,
            -0.17576751391249326,
            -0.09262051950910596,
            0.12994649580506978,
            0.05675496770123604
          ],
          [
            -0.0109851641927724,
            0.09199446580892241,
            -0.009587395375191345,
            0.031719705928434636,
            -0.14107030857855793
          ],
          [
            -0.04183131105312798,
            -0.20407633395159416,
            0.1475240593789988,
            0.0592048964638181,
            0.10041924282144978
          ],
          [
            0.003775513635440055,
            -0.24878110012268273,
            -0.07874060821239234,
            0.0414915846970243,
            0.05487400957720168
          ],
          [
            -0.05398164389999474,
            -0.32090440455558683,
            -0.15643489033884012,
            0.08250332762651426,
            0.23354745805791507
          ],
          [
            0.34924149745847605,
            -0.40036129976169277,
            -0.41785733949806336,
            0.48092826386515775,
            0.5279201544509098
          ],
          [
            0.8546634501513539,
            -0.3044306840734232,
            -0.9389655310827151,
            0.7343803020126548,
            0.8044232430653153
          ],
          [
            0.39773827496125524,
            0.14412017064090676,
            -0.35022995755733144,
            0.21832069557133263,
            0.3658676935906643
          ],
          [
            0.43308805168146797,
            1.0644628357604107,
            -0.1444867600443461,
            -0.6457358195912497,
            0.7011148111129238
          ]
        ]
      },
      {
        "activation": 1,
        "biases": [
          0.20695926445641208,
          -3.1431574902501658,
          -0.4628571124119862,
          -4.491926997539453,
          -0.7691455115530628
        ],
        "cols": 5,
        "rows": 5,
        "weights": [
          [
            3.5148961777697685,
            2.7161282983470505,
            -6.6549536224422035,
            2.0681280148763164,
            -3.4802622371262193
          ],
          [
            -3.3881968090312777,
            -2.837131293222807,
            -3.288776517266451,
            6.522957000880919,
            3.5460537001315786
          ],
          [
            1.5850460138804239,
            -5.617452945531473,
            1.905423152182682,
            -2.377192545410442,
            -1.9348361303283685
          ],
          [
            -2.3966142848125163,
            3.0038870327957907,
            -2.1723882752492245,
            -5.110383937775226,
            2.760608792542362
          ],
          [
            -6.917081554600175,
            2.415623800376978,
            3.9278609388556247,
            2.1043268234610037,
            -3.6204171082351544
          ]
        ]
      }
    ]
  }
}
